digraph Tree {
node [shape=box, style="filled, rounded", color="black", fontname=helvetica] ;
edge [fontname=helvetica] ;
0 [label=<physical_score &le; 30.65<br/>entropy = 0.972<br/>samples = 4000<br/>value = [1607, 2393]>, fillcolor="#bedff6"] ;
1 [label=<physical_score &le; 27.95<br/>entropy = 0.163<br/>samples = 1339<br/>value = [1307, 32]>, fillcolor="#e6843e"] ;
0 -> 1 [labeldistance=2.5, labelangle=45, headlabel="True"] ;
2 [label=<physical_score &le; 24.25<br/>entropy = 0.019<br/>samples = 1117<br/>value = [1115, 2]>, fillcolor="#e58139"] ;
1 -> 2 ;
3 [label=<entropy = 0.0<br/>samples = 771<br/>value = [771, 0]>, fillcolor="#e58139"] ;
2 -> 3 ;
4 [label=<physical_score &le; 24.35<br/>entropy = 0.051<br/>samples = 346<br/>value = [344, 2]>, fillcolor="#e5823a"] ;
2 -> 4 ;
5 [label=<age &le; 62.5<br/>entropy = 0.469<br/>samples = 10<br/>value = [9, 1]>, fillcolor="#e88f4f"] ;
4 -> 5 ;
6 [label=<entropy = 0.0<br/>samples = 4<br/>value = [4, 0]>, fillcolor="#e58139"] ;
5 -> 6 ;
7 [label=<age &le; 66.0<br/>entropy = 0.65<br/>samples = 6<br/>value = [5, 1]>, fillcolor="#ea9a61"] ;
5 -> 7 ;
8 [label=<entropy = 0.918<br/>samples = 3<br/>value = [2, 1]>, fillcolor="#f2c09c"] ;
7 -> 8 ;
9 [label=<entropy = 0.0<br/>samples = 3<br/>value = [3, 0]>, fillcolor="#e58139"] ;
7 -> 9 ;
10 [label=<age &le; 63.5<br/>entropy = 0.029<br/>samples = 336<br/>value = [335, 1]>, fillcolor="#e5813a"] ;
4 -> 10 ;
11 [label=<entropy = 0.0<br/>samples = 221<br/>value = [221, 0]>, fillcolor="#e58139"] ;
10 -> 11 ;
12 [label=<age &le; 64.5<br/>entropy = 0.072<br/>samples = 115<br/>value = [114, 1]>, fillcolor="#e5823b"] ;
10 -> 12 ;
13 [label=<physical_score &le; 26.4<br/>entropy = 0.337<br/>samples = 16<br/>value = [15, 1]>, fillcolor="#e78946"] ;
12 -> 13 ;
14 [label=<entropy = 0.0<br/>samples = 12<br/>value = [12, 0]>, fillcolor="#e58139"] ;
13 -> 14 ;
15 [label=<physical_score &le; 26.75<br/>entropy = 0.811<br/>samples = 4<br/>value = [3, 1]>, fillcolor="#eeab7b"] ;
13 -> 15 ;
16 [label=<entropy = 0.0<br/>samples = 1<br/>value = [0, 1]>, fillcolor="#399de5"] ;
15 -> 16 ;
17 [label=<entropy = 0.0<br/>samples = 3<br/>value = [3, 0]>, fillcolor="#e58139"] ;
15 -> 17 ;
18 [label=<entropy = 0.0<br/>samples = 99<br/>value = [99, 0]>, fillcolor="#e58139"] ;
12 -> 18 ;
19 [label=<age &le; 53.5<br/>entropy = 0.571<br/>samples = 222<br/>value = [192, 30]>, fillcolor="#e99558"] ;
1 -> 19 ;
20 [label=<entropy = 0.0<br/>samples = 56<br/>value = [56, 0]>, fillcolor="#e58139"] ;
19 -> 20 ;
21 [label=<physical_score &le; 29.25<br/>entropy = 0.682<br/>samples = 166<br/>value = [136, 30]>, fillcolor="#eb9d65"] ;
19 -> 21 ;
22 [label=<age &le; 61.5<br/>entropy = 0.534<br/>samples = 74<br/>value = [65, 9]>, fillcolor="#e99254"] ;
21 -> 22 ;
23 [label=<physical_score &le; 28.65<br/>entropy = 0.661<br/>samples = 35<br/>value = [29, 6]>, fillcolor="#ea9b62"] ;
22 -> 23 ;
24 [label=<age &le; 58.5<br/>entropy = 0.337<br/>samples = 16<br/>value = [15, 1]>, fillcolor="#e78946"] ;
23 -> 24 ;
25 [label=<entropy = 0.0<br/>samples = 8<br/>value = [8, 0]>, fillcolor="#e58139"] ;
24 -> 25 ;
26 [label=<age &le; 59.5<br/>entropy = 0.544<br/>samples = 8<br/>value = [7, 1]>, fillcolor="#e99355"] ;
24 -> 26 ;
27 [label=<entropy = 1.0<br/>samples = 2<br/>value = [1, 1]>, fillcolor="#ffffff"] ;
26 -> 27 ;
28 [label=<entropy = 0.0<br/>samples = 6<br/>value = [6, 0]>, fillcolor="#e58139"] ;
26 -> 28 ;
29 [label=<age &le; 60.5<br/>entropy = 0.831<br/>samples = 19<br/>value = [14, 5]>, fillcolor="#eeae80"] ;
23 -> 29 ;
30 [label=<physical_score &le; 28.95<br/>entropy = 0.696<br/>samples = 16<br/>value = [13, 3]>, fillcolor="#eb9e67"] ;
29 -> 30 ;
31 [label=<physical_score &le; 28.75<br/>entropy = 0.881<br/>samples = 10<br/>value = [7, 3]>, fillcolor="#f0b78e"] ;
30 -> 31 ;
32 [label=<age &le; 56.0<br/>entropy = 1.0<br/>samples = 4<br/>value = [2, 2]>, fillcolor="#ffffff"] ;
31 -> 32 ;
33 [label=<entropy = 1.0<br/>samples = 2<br/>value = [1, 1]>, fillcolor="#ffffff"] ;
32 -> 33 ;
34 [label=<entropy = 1.0<br/>samples = 2<br/>value = [1, 1]>, fillcolor="#ffffff"] ;
32 -> 34 ;
35 [label=<physical_score &le; 28.85<br/>entropy = 0.65<br/>samples = 6<br/>value = [5, 1]>, fillcolor="#ea9a61"] ;
31 -> 35 ;
36 [label=<entropy = 0.0<br/>samples = 4<br/>value = [4, 0]>, fillcolor="#e58139"] ;
35 -> 36 ;
37 [label=<entropy = 1.0<br/>samples = 2<br/>value = [1, 1]>, fillcolor="#ffffff"] ;
35 -> 37 ;
38 [label=<entropy = 0.0<br/>samples = 6<br/>value = [6, 0]>, fillcolor="#e58139"] ;
30 -> 38 ;
39 [label=<physical_score &le; 29.0<br/>entropy = 0.918<br/>samples = 3<br/>value = [1, 2]>, fillcolor="#9ccef2"] ;
29 -> 39 ;
40 [label=<entropy = 1.0<br/>samples = 2<br/>value = [1, 1]>, fillcolor="#ffffff"] ;
39 -> 40 ;
41 [label=<entropy = 0.0<br/>samples = 1<br/>value = [0, 1]>, fillcolor="#399de5"] ;
39 -> 41 ;
42 [label=<physical_score &le; 28.65<br/>entropy = 0.391<br/>samples = 39<br/>value = [36, 3]>, fillcolor="#e78c49"] ;
22 -> 42 ;
43 [label=<age &le; 63.5<br/>entropy = 0.696<br/>samples = 16<br/>value = [13, 3]>, fillcolor="#eb9e67"] ;
42 -> 43 ;
44 [label=<entropy = 0.0<br/>samples = 5<br/>value = [5, 0]>, fillcolor="#e58139"] ;
43 -> 44 ;
45 [label=<age &le; 72.0<br/>entropy = 0.845<br/>samples = 11<br/>value = [8, 3]>, fillcolor="#efb083"] ;
43 -> 45 ;
46 [label=<age &le; 70.5<br/>entropy = 0.985<br/>samples = 7<br/>value = [4, 3]>, fillcolor="#f8e0ce"] ;
45 -> 46 ;
47 [label=<physical_score &le; 28.5<br/>entropy = 0.918<br/>samples = 6<br/>value = [4, 2]>, fillcolor="#f2c09c"] ;
46 -> 47 ;
48 [label=<age &le; 64.5<br/>entropy = 0.722<br/>samples = 5<br/>value = [4, 1]>, fillcolor="#eca06a"] ;
47 -> 48 ;
49 [label=<entropy = 1.0<br/>samples = 2<br/>value = [1, 1]>, fillcolor="#ffffff"] ;
48 -> 49 ;
50 [label=<entropy = 0.0<br/>samples = 3<br/>value = [3, 0]>, fillcolor="#e58139"] ;
48 -> 50 ;
51 [label=<entropy = 0.0<br/>samples = 1<br/>value = [0, 1]>, fillcolor="#399de5"] ;
47 -> 51 ;
52 [label=<entropy = 0.0<br/>samples = 1<br/>value = [0, 1]>, fillcolor="#399de5"] ;
46 -> 52 ;
53 [label=<entropy = 0.0<br/>samples = 4<br/>value = [4, 0]>, fillcolor="#e58139"] ;
45 -> 53 ;
54 [label=<entropy = 0.0<br/>samples = 23<br/>value = [23, 0]>, fillcolor="#e58139"] ;
42 -> 54 ;
55 [label=<age &le; 68.5<br/>entropy = 0.775<br/>samples = 92<br/>value = [71, 21]>, fillcolor="#eda674"] ;
21 -> 55 ;
56 [label=<age &le; 55.5<br/>entropy = 0.807<br/>samples = 85<br/>value = [64, 21]>, fillcolor="#eeaa7a"] ;
55 -> 56 ;
57 [label=<age &le; 54.5<br/>entropy = 0.544<br/>samples = 16<br/>value = [14, 2]>, fillcolor="#e99355"] ;
56 -> 57 ;
58 [label=<physical_score &le; 30.35<br/>entropy = 0.811<br/>samples = 8<br/>value = [6, 2]>, fillcolor="#eeab7b"] ;
57 -> 58 ;
59 [label=<physical_score &le; 29.6<br/>entropy = 0.971<br/>samples = 5<br/>value = [3, 2]>, fillcolor="#f6d5bd"] ;
58 -> 59 ;
60 [label=<entropy = 0.0<br/>samples = 2<br/>value = [2, 0]>, fillcolor="#e58139"] ;
59 -> 60 ;
61 [label=<physical_score &le; 30.0<br/>entropy = 0.918<br/>samples = 3<br/>value = [1, 2]>, fillcolor="#9ccef2"] ;
59 -> 61 ;
62 [label=<entropy = 0.0<br/>samples = 1<br/>value = [0, 1]>, fillcolor="#399de5"] ;
61 -> 62 ;
63 [label=<entropy = 1.0<br/>samples = 2<br/>value = [1, 1]>, fillcolor="#ffffff"] ;
61 -> 63 ;
64 [label=<entropy = 0.0<br/>samples = 3<br/>value = [3, 0]>, fillcolor="#e58139"] ;
58 -> 64 ;
65 [label=<entropy = 0.0<br/>samples = 8<br/>value = [8, 0]>, fillcolor="#e58139"] ;
57 -> 65 ;
66 [label=<physical_score &le; 29.35<br/>entropy = 0.849<br/>samples = 69<br/>value = [50, 19]>, fillcolor="#efb184"] ;
56 -> 66 ;
67 [label=<age &le; 60.0<br/>entropy = 0.918<br/>samples = 3<br/>value = [1, 2]>, fillcolor="#9ccef2"] ;
66 -> 67 ;
68 [label=<entropy = 0.0<br/>samples = 1<br/>value = [0, 1]>, fillcolor="#399de5"] ;
67 -> 68 ;
69 [label=<age &le; 64.0<br/>entropy = 1.0<br/>samples = 2<br/>value = [1, 1]>, fillcolor="#ffffff"] ;
67 -> 69 ;
70 [label=<entropy = 0.0<br/>samples = 1<br/>value = [1, 0]>, fillcolor="#e58139"] ;
69 -> 70 ;
71 [label=<entropy = 0.0<br/>samples = 1<br/>value = [0, 1]>, fillcolor="#399de5"] ;
69 -> 71 ;
72 [label=<age &le; 56.5<br/>entropy = 0.823<br/>samples = 66<br/>value = [49, 17]>, fillcolor="#eead7e"] ;
66 -> 72 ;
73 [label=<physical_score &le; 30.3<br/>entropy = 1.0<br/>samples = 6<br/>value = [3, 3]>, fillcolor="#ffffff"] ;
72 -> 73 ;
74 [label=<physical_score &le; 29.45<br/>entropy = 0.811<br/>samples = 4<br/>value = [1, 3]>, fillcolor="#7bbeee"] ;
73 -> 74 ;
75 [label=<entropy = 1.0<br/>samples = 2<br/>value = [1, 1]>, fillcolor="#ffffff"] ;
74 -> 75 ;
76 [label=<entropy = 0.0<br/>samples = 2<br/>value = [0, 2]>, fillcolor="#399de5"] ;
74 -> 76 ;
77 [label=<entropy = 0.0<br/>samples = 2<br/>value = [2, 0]>, fillcolor="#e58139"] ;
73 -> 77 ;
78 [label=<physical_score &le; 29.45<br/>entropy = 0.784<br/>samples = 60<br/>value = [46, 14]>, fillcolor="#eda775"] ;
72 -> 78 ;
79 [label=<entropy = 0.0<br/>samples = 6<br/>value = [6, 0]>, fillcolor="#e58139"] ;
78 -> 79 ;
80 [label=<age &le; 67.5<br/>entropy = 0.826<br/>samples = 54<br/>value = [40, 14]>, fillcolor="#eead7e"] ;
78 -> 80 ;
81 [label=<age &le; 66.5<br/>entropy = 0.804<br/>samples = 53<br/>value = [40, 13]>, fillcolor="#edaa79"] ;
80 -> 81 ;
82 [label=<physical_score &le; 30.35<br/>entropy = 0.843<br/>samples = 48<br/>value = [35, 13]>, fillcolor="#efb083"] ;
81 -> 82 ;
83 [label=<physical_score &le; 30.25<br/>entropy = 0.758<br/>samples = 32<br/>value = [25, 7]>, fillcolor="#eca470"] ;
82 -> 83 ;
84 [label=<age &le; 57.5<br/>entropy = 0.826<br/>samples = 27<br/>value = [20, 7]>, fillcolor="#eead7e"] ;
83 -> 84 ;
85 [label=<entropy = 0.0<br/>samples = 1<br/>value = [0, 1]>, fillcolor="#399de5"] ;
84 -> 85 ;
86 [label=<physical_score &le; 29.65<br/>entropy = 0.779<br/>samples = 26<br/>value = [20, 6]>, fillcolor="#eda774"] ;
84 -> 86 ;
87 [label=<age &le; 61.5<br/>entropy = 0.985<br/>samples = 7<br/>value = [4, 3]>, fillcolor="#f8e0ce"] ;
86 -> 87 ;
88 [label=<entropy = 0.0<br/>samples = 2<br/>value = [0, 2]>, fillcolor="#399de5"] ;
87 -> 88 ;
89 [label=<physical_score &le; 29.55<br/>entropy = 0.722<br/>samples = 5<br/>value = [4, 1]>, fillcolor="#eca06a"] ;
87 -> 89 ;
90 [label=<entropy = 0.0<br/>samples = 2<br/>value = [2, 0]>, fillcolor="#e58139"] ;
89 -> 90 ;
91 [label=<age &le; 63.0<br/>entropy = 0.918<br/>samples = 3<br/>value = [2, 1]>, fillcolor="#f2c09c"] ;
89 -> 91 ;
92 [label=<entropy = 0.0<br/>samples = 1<br/>value = [1, 0]>, fillcolor="#e58139"] ;
91 -> 92 ;
93 [label=<age &le; 65.0<br/>entropy = 1.0<br/>samples = 2<br/>value = [1, 1]>, fillcolor="#ffffff"] ;
91 -> 93 ;
94 [label=<entropy = 0.0<br/>samples = 1<br/>value = [0, 1]>, fillcolor="#399de5"] ;
93 -> 94 ;
95 [label=<entropy = 0.0<br/>samples = 1<br/>value = [1, 0]>, fillcolor="#e58139"] ;
93 -> 95 ;
96 [label=<physical_score &le; 29.85<br/>entropy = 0.629<br/>samples = 19<br/>value = [16, 3]>, fillcolor="#ea995e"] ;
86 -> 96 ;
97 [label=<entropy = 0.0<br/>samples = 5<br/>value = [5, 0]>, fillcolor="#e58139"] ;
96 -> 97 ;
98 [label=<age &le; 65.0<br/>entropy = 0.75<br/>samples = 14<br/>value = [11, 3]>, fillcolor="#eca36f"] ;
96 -> 98 ;
99 [label=<age &le; 63.5<br/>entropy = 0.811<br/>samples = 12<br/>value = [9, 3]>, fillcolor="#eeab7b"] ;
98 -> 99 ;
100 [label=<physical_score &le; 29.95<br/>entropy = 0.684<br/>samples = 11<br/>value = [9, 2]>, fillcolor="#eb9d65"] ;
99 -> 100 ;
101 [label=<entropy = 0.0<br/>samples = 3<br/>value = [3, 0]>, fillcolor="#e58139"] ;
100 -> 101 ;
102 [label=<age &le; 58.5<br/>entropy = 0.811<br/>samples = 8<br/>value = [6, 2]>, fillcolor="#eeab7b"] ;
100 -> 102 ;
103 [label=<entropy = 0.0<br/>samples = 1<br/>value = [0, 1]>, fillcolor="#399de5"] ;
102 -> 103 ;
104 [label=<physical_score &le; 30.05<br/>entropy = 0.592<br/>samples = 7<br/>value = [6, 1]>, fillcolor="#e9965a"] ;
102 -> 104 ;
105 [label=<entropy = 0.918<br/>samples = 3<br/>value = [2, 1]>, fillcolor="#f2c09c"] ;
104 -> 105 ;
106 [label=<entropy = 0.0<br/>samples = 4<br/>value = [4, 0]>, fillcolor="#e58139"] ;
104 -> 106 ;
107 [label=<entropy = 0.0<br/>samples = 1<br/>value = [0, 1]>, fillcolor="#399de5"] ;
99 -> 107 ;
108 [label=<entropy = 0.0<br/>samples = 2<br/>value = [2, 0]>, fillcolor="#e58139"] ;
98 -> 108 ;
109 [label=<entropy = 0.0<br/>samples = 5<br/>value = [5, 0]>, fillcolor="#e58139"] ;
83 -> 109 ;
110 [label=<age &le; 58.5<br/>entropy = 0.954<br/>samples = 16<br/>value = [10, 6]>, fillcolor="#f5cdb0"] ;
82 -> 110 ;
111 [label=<entropy = 0.0<br/>samples = 4<br/>value = [4, 0]>, fillcolor="#e58139"] ;
110 -> 111 ;
112 [label=<age &le; 64.5<br/>entropy = 1.0<br/>samples = 12<br/>value = [6, 6]>, fillcolor="#ffffff"] ;
110 -> 112 ;
113 [label=<age &le; 62.5<br/>entropy = 0.954<br/>samples = 8<br/>value = [5, 3]>, fillcolor="#f5cdb0"] ;
112 -> 113 ;
114 [label=<age &le; 60.5<br/>entropy = 1.0<br/>samples = 6<br/>value = [3, 3]>, fillcolor="#ffffff"] ;
113 -> 114 ;
115 [label=<physical_score &le; 30.5<br/>entropy = 0.918<br/>samples = 3<br/>value = [1, 2]>, fillcolor="#9ccef2"] ;
114 -> 115 ;
116 [label=<entropy = 0.0<br/>samples = 1<br/>value = [0, 1]>, fillcolor="#399de5"] ;
115 -> 116 ;
117 [label=<age &le; 59.5<br/>entropy = 1.0<br/>samples = 2<br/>value = [1, 1]>, fillcolor="#ffffff"] ;
115 -> 117 ;
118 [label=<entropy = 0.0<br/>samples = 1<br/>value = [1, 0]>, fillcolor="#e58139"] ;
117 -> 118 ;
119 [label=<entropy = 0.0<br/>samples = 1<br/>value = [0, 1]>, fillcolor="#399de5"] ;
117 -> 119 ;
120 [label=<age &le; 61.5<br/>entropy = 0.918<br/>samples = 3<br/>value = [2, 1]>, fillcolor="#f2c09c"] ;
114 -> 120 ;
121 [label=<entropy = 0.0<br/>samples = 1<br/>value = [1, 0]>, fillcolor="#e58139"] ;
120 -> 121 ;
122 [label=<entropy = 1.0<br/>samples = 2<br/>value = [1, 1]>, fillcolor="#ffffff"] ;
120 -> 122 ;
123 [label=<entropy = 0.0<br/>samples = 2<br/>value = [2, 0]>, fillcolor="#e58139"] ;
113 -> 123 ;
124 [label=<physical_score &le; 30.55<br/>entropy = 0.811<br/>samples = 4<br/>value = [1, 3]>, fillcolor="#7bbeee"] ;
112 -> 124 ;
125 [label=<entropy = 0.0<br/>samples = 2<br/>value = [0, 2]>, fillcolor="#399de5"] ;
124 -> 125 ;
126 [label=<age &le; 65.5<br/>entropy = 1.0<br/>samples = 2<br/>value = [1, 1]>, fillcolor="#ffffff"] ;
124 -> 126 ;
127 [label=<entropy = 0.0<br/>samples = 1<br/>value = [0, 1]>, fillcolor="#399de5"] ;
126 -> 127 ;
128 [label=<entropy = 0.0<br/>samples = 1<br/>value = [1, 0]>, fillcolor="#e58139"] ;
126 -> 128 ;
129 [label=<entropy = 0.0<br/>samples = 5<br/>value = [5, 0]>, fillcolor="#e58139"] ;
81 -> 129 ;
130 [label=<entropy = 0.0<br/>samples = 1<br/>value = [0, 1]>, fillcolor="#399de5"] ;
80 -> 130 ;
131 [label=<entropy = 0.0<br/>samples = 7<br/>value = [7, 0]>, fillcolor="#e58139"] ;
55 -> 131 ;
132 [label=<physical_score &le; 34.45<br/>entropy = 0.508<br/>samples = 2661<br/>value = [300, 2361]>, fillcolor="#52a9e8"] ;
0 -> 132 [labeldistance=2.5, labelangle=-45, headlabel="False"] ;
133 [label=<age &le; 63.5<br/>entropy = 0.959<br/>samples = 488<br/>value = [186, 302]>, fillcolor="#b3d9f5"] ;
132 -> 133 ;
134 [label=<physical_score &le; 33.45<br/>entropy = 0.926<br/>samples = 442<br/>value = [151, 291]>, fillcolor="#a0d0f2"] ;
133 -> 134 ;
135 [label=<age &le; 46.5<br/>entropy = 0.987<br/>samples = 294<br/>value = [127, 167]>, fillcolor="#d0e8f9"] ;
134 -> 135 ;
136 [label=<physical_score &le; 31.65<br/>entropy = 0.845<br/>samples = 33<br/>value = [24, 9]>, fillcolor="#efb083"] ;
135 -> 136 ;
137 [label=<entropy = 0.0<br/>samples = 10<br/>value = [10, 0]>, fillcolor="#e58139"] ;
136 -> 137 ;
138 [label=<age &le; 41.5<br/>entropy = 0.966<br/>samples = 23<br/>value = [14, 9]>, fillcolor="#f6d2b8"] ;
136 -> 138 ;
139 [label=<entropy = 0.0<br/>samples = 5<br/>value = [5, 0]>, fillcolor="#e58139"] ;
138 -> 139 ;
140 [label=<physical_score &le; 32.25<br/>entropy = 1.0<br/>samples = 18<br/>value = [9, 9]>, fillcolor="#ffffff"] ;
138 -> 140 ;
141 [label=<entropy = 0.0<br/>samples = 2<br/>value = [0, 2]>, fillcolor="#399de5"] ;
140 -> 141 ;
142 [label=<physical_score &le; 32.35<br/>entropy = 0.989<br/>samples = 16<br/>value = [9, 7]>, fillcolor="#f9e3d3"] ;
140 -> 142 ;
143 [label=<entropy = 0.0<br/>samples = 2<br/>value = [2, 0]>, fillcolor="#e58139"] ;
142 -> 143 ;
144 [label=<physical_score &le; 33.05<br/>entropy = 1.0<br/>samples = 14<br/>value = [7, 7]>, fillcolor="#ffffff"] ;
142 -> 144 ;
145 [label=<age &le; 45.5<br/>entropy = 0.918<br/>samples = 6<br/>value = [2, 4]>, fillcolor="#9ccef2"] ;
144 -> 145 ;
146 [label=<entropy = 0.0<br/>samples = 2<br/>value = [0, 2]>, fillcolor="#399de5"] ;
145 -> 146 ;
147 [label=<physical_score &le; 32.6<br/>entropy = 1.0<br/>samples = 4<br/>value = [2, 2]>, fillcolor="#ffffff"] ;
145 -> 147 ;
148 [label=<entropy = 0.0<br/>samples = 1<br/>value = [1, 0]>, fillcolor="#e58139"] ;
147 -> 148 ;
149 [label=<physical_score &le; 32.85<br/>entropy = 0.918<br/>samples = 3<br/>value = [1, 2]>, fillcolor="#9ccef2"] ;
147 -> 149 ;
150 [label=<entropy = 0.0<br/>samples = 1<br/>value = [0, 1]>, fillcolor="#399de5"] ;
149 -> 150 ;
151 [label=<physical_score &le; 32.95<br/>entropy = 1.0<br/>samples = 2<br/>value = [1, 1]>, fillcolor="#ffffff"] ;
149 -> 151 ;
152 [label=<entropy = 0.0<br/>samples = 1<br/>value = [1, 0]>, fillcolor="#e58139"] ;
151 -> 152 ;
153 [label=<entropy = 0.0<br/>samples = 1<br/>value = [0, 1]>, fillcolor="#399de5"] ;
151 -> 153 ;
154 [label=<physical_score &le; 33.25<br/>entropy = 0.954<br/>samples = 8<br/>value = [5, 3]>, fillcolor="#f5cdb0"] ;
144 -> 154 ;
155 [label=<entropy = 0.0<br/>samples = 3<br/>value = [3, 0]>, fillcolor="#e58139"] ;
154 -> 155 ;
156 [label=<age &le; 44.5<br/>entropy = 0.971<br/>samples = 5<br/>value = [2, 3]>, fillcolor="#bddef6"] ;
154 -> 156 ;
157 [label=<age &le; 43.5<br/>entropy = 0.918<br/>samples = 3<br/>value = [2, 1]>, fillcolor="#f2c09c"] ;
156 -> 157 ;
158 [label=<entropy = 0.0<br/>samples = 1<br/>value = [1, 0]>, fillcolor="#e58139"] ;
157 -> 158 ;
159 [label=<entropy = 1.0<br/>samples = 2<br/>value = [1, 1]>, fillcolor="#ffffff"] ;
157 -> 159 ;
160 [label=<entropy = 0.0<br/>samples = 2<br/>value = [0, 2]>, fillcolor="#399de5"] ;
156 -> 160 ;
161 [label=<physical_score &le; 32.45<br/>entropy = 0.968<br/>samples = 261<br/>value = [103, 158]>, fillcolor="#baddf6"] ;
135 -> 161 ;
162 [label=<age &le; 58.5<br/>entropy = 0.996<br/>samples = 138<br/>value = [64, 74]>, fillcolor="#e4f2fb"] ;
161 -> 162 ;
163 [label=<age &le; 56.5<br/>entropy = 0.981<br/>samples = 98<br/>value = [41, 57]>, fillcolor="#c7e3f8"] ;
162 -> 163 ;
164 [label=<age &le; 54.5<br/>entropy = 0.994<br/>samples = 75<br/>value = [34, 41]>, fillcolor="#ddeefb"] ;
163 -> 164 ;
165 [label=<physical_score &le; 31.05<br/>entropy = 0.963<br/>samples = 49<br/>value = [19, 30]>, fillcolor="#b6dbf5"] ;
164 -> 165 ;
166 [label=<age &le; 49.5<br/>entropy = 0.65<br/>samples = 12<br/>value = [2, 10]>, fillcolor="#61b1ea"] ;
165 -> 166 ;
167 [label=<entropy = 0.0<br/>samples = 1<br/>value = [1, 0]>, fillcolor="#e58139"] ;
166 -> 167 ;
168 [label=<physical_score &le; 30.95<br/>entropy = 0.439<br/>samples = 11<br/>value = [1, 10]>, fillcolor="#4da7e8"] ;
166 -> 168 ;
169 [label=<entropy = 0.0<br/>samples = 7<br/>value = [0, 7]>, fillcolor="#399de5"] ;
168 -> 169 ;
170 [label=<age &le; 50.5<br/>entropy = 0.811<br/>samples = 4<br/>value = [1, 3]>, fillcolor="#7bbeee"] ;
168 -> 170 ;
171 [label=<entropy = 0.0<br/>samples = 1<br/>value = [0, 1]>, fillcolor="#399de5"] ;
170 -> 171 ;
172 [label=<age &le; 51.5<br/>entropy = 0.918<br/>samples = 3<br/>value = [1, 2]>, fillcolor="#9ccef2"] ;
170 -> 172 ;
173 [label=<entropy = 1.0<br/>samples = 2<br/>value = [1, 1]>, fillcolor="#ffffff"] ;
172 -> 173 ;
174 [label=<entropy = 0.0<br/>samples = 1<br/>value = [0, 1]>, fillcolor="#399de5"] ;
172 -> 174 ;
175 [label=<physical_score &le; 31.25<br/>entropy = 0.995<br/>samples = 37<br/>value = [17, 20]>, fillcolor="#e1f0fb"] ;
165 -> 175 ;
176 [label=<age &le; 52.5<br/>entropy = 0.722<br/>samples = 5<br/>value = [4, 1]>, fillcolor="#eca06a"] ;
175 -> 176 ;
177 [label=<entropy = 1.0<br/>samples = 2<br/>value = [1, 1]>, fillcolor="#ffffff"] ;
176 -> 177 ;
178 [label=<entropy = 0.0<br/>samples = 3<br/>value = [3, 0]>, fillcolor="#e58139"] ;
176 -> 178 ;
179 [label=<age &le; 50.5<br/>entropy = 0.974<br/>samples = 32<br/>value = [13, 19]>, fillcolor="#c0e0f7"] ;
175 -> 179 ;
180 [label=<physical_score &le; 32.15<br/>entropy = 0.98<br/>samples = 12<br/>value = [7, 5]>, fillcolor="#f8dbc6"] ;
179 -> 180 ;
181 [label=<physical_score &le; 31.85<br/>entropy = 0.946<br/>samples = 11<br/>value = [7, 4]>, fillcolor="#f4c9aa"] ;
180 -> 181 ;
182 [label=<age &le; 47.5<br/>entropy = 1.0<br/>samples = 8<br/>value = [4, 4]>, fillcolor="#ffffff"] ;
181 -> 182 ;
183 [label=<entropy = 0.0<br/>samples = 2<br/>value = [0, 2]>, fillcolor="#399de5"] ;
182 -> 183 ;
184 [label=<age &le; 48.5<br/>entropy = 0.918<br/>samples = 6<br/>value = [4, 2]>, fillcolor="#f2c09c"] ;
182 -> 184 ;
185 [label=<entropy = 0.0<br/>samples = 1<br/>value = [1, 0]>, fillcolor="#e58139"] ;
184 -> 185 ;
186 [label=<age &le; 49.5<br/>entropy = 0.971<br/>samples = 5<br/>value = [3, 2]>, fillcolor="#f6d5bd"] ;
184 -> 186 ;
187 [label=<entropy = 0.918<br/>samples = 3<br/>value = [2, 1]>, fillcolor="#f2c09c"] ;
186 -> 187 ;
188 [label=<entropy = 1.0<br/>samples = 2<br/>value = [1, 1]>, fillcolor="#ffffff"] ;
186 -> 188 ;
189 [label=<entropy = 0.0<br/>samples = 3<br/>value = [3, 0]>, fillcolor="#e58139"] ;
181 -> 189 ;
190 [label=<entropy = 0.0<br/>samples = 1<br/>value = [0, 1]>, fillcolor="#399de5"] ;
180 -> 190 ;
191 [label=<age &le; 51.5<br/>entropy = 0.881<br/>samples = 20<br/>value = [6, 14]>, fillcolor="#8ec7f0"] ;
179 -> 191 ;
192 [label=<entropy = 0.0<br/>samples = 3<br/>value = [0, 3]>, fillcolor="#399de5"] ;
191 -> 192 ;
193 [label=<physical_score &le; 32.25<br/>entropy = 0.937<br/>samples = 17<br/>value = [6, 11]>, fillcolor="#a5d2f3"] ;
191 -> 193 ;
194 [label=<physical_score &le; 32.05<br/>entropy = 0.837<br/>samples = 15<br/>value = [4, 11]>, fillcolor="#81c1ee"] ;
193 -> 194 ;
195 [label=<physical_score &le; 31.55<br/>entropy = 0.946<br/>samples = 11<br/>value = [4, 7]>, fillcolor="#aad5f4"] ;
194 -> 195 ;
196 [label=<entropy = 0.0<br/>samples = 1<br/>value = [1, 0]>, fillcolor="#e58139"] ;
195 -> 196 ;
197 [label=<age &le; 53.5<br/>entropy = 0.881<br/>samples = 10<br/>value = [3, 7]>, fillcolor="#8ec7f0"] ;
195 -> 197 ;
198 [label=<physical_score &le; 31.75<br/>entropy = 1.0<br/>samples = 6<br/>value = [3, 3]>, fillcolor="#ffffff"] ;
197 -> 198 ;
199 [label=<age &le; 52.5<br/>entropy = 0.918<br/>samples = 3<br/>value = [1, 2]>, fillcolor="#9ccef2"] ;
198 -> 199 ;
200 [label=<entropy = 1.0<br/>samples = 2<br/>value = [1, 1]>, fillcolor="#ffffff"] ;
199 -> 200 ;
201 [label=<entropy = 0.0<br/>samples = 1<br/>value = [0, 1]>, fillcolor="#399de5"] ;
199 -> 201 ;
202 [label=<physical_score &le; 31.9<br/>entropy = 0.918<br/>samples = 3<br/>value = [2, 1]>, fillcolor="#f2c09c"] ;
198 -> 202 ;
203 [label=<entropy = 0.0<br/>samples = 1<br/>value = [1, 0]>, fillcolor="#e58139"] ;
202 -> 203 ;
204 [label=<entropy = 1.0<br/>samples = 2<br/>value = [1, 1]>, fillcolor="#ffffff"] ;
202 -> 204 ;
205 [label=<entropy = 0.0<br/>samples = 4<br/>value = [0, 4]>, fillcolor="#399de5"] ;
197 -> 205 ;
206 [label=<entropy = 0.0<br/>samples = 4<br/>value = [0, 4]>, fillcolor="#399de5"] ;
194 -> 206 ;
207 [label=<entropy = 0.0<br/>samples = 2<br/>value = [2, 0]>, fillcolor="#e58139"] ;
193 -> 207 ;
208 [label=<physical_score &le; 32.25<br/>entropy = 0.983<br/>samples = 26<br/>value = [15, 11]>, fillcolor="#f8ddca"] ;
164 -> 208 ;
209 [label=<physical_score &le; 31.05<br/>entropy = 0.954<br/>samples = 24<br/>value = [15, 9]>, fillcolor="#f5cdb0"] ;
208 -> 209 ;
210 [label=<entropy = 0.0<br/>samples = 3<br/>value = [3, 0]>, fillcolor="#e58139"] ;
209 -> 210 ;
211 [label=<physical_score &le; 31.85<br/>entropy = 0.985<br/>samples = 21<br/>value = [12, 9]>, fillcolor="#f8e0ce"] ;
209 -> 211 ;
212 [label=<physical_score &le; 31.55<br/>entropy = 0.985<br/>samples = 14<br/>value = [6, 8]>, fillcolor="#cee6f8"] ;
211 -> 212 ;
213 [label=<physical_score &le; 31.45<br/>entropy = 0.971<br/>samples = 10<br/>value = [6, 4]>, fillcolor="#f6d5bd"] ;
212 -> 213 ;
214 [label=<physical_score &le; 31.3<br/>entropy = 0.991<br/>samples = 9<br/>value = [5, 4]>, fillcolor="#fae6d7"] ;
213 -> 214 ;
215 [label=<age &le; 55.5<br/>entropy = 1.0<br/>samples = 6<br/>value = [3, 3]>, fillcolor="#ffffff"] ;
214 -> 215 ;
216 [label=<physical_score &le; 31.15<br/>entropy = 1.0<br/>samples = 4<br/>value = [2, 2]>, fillcolor="#ffffff"] ;
215 -> 216 ;
217 [label=<entropy = 1.0<br/>samples = 2<br/>value = [1, 1]>, fillcolor="#ffffff"] ;
216 -> 217 ;
218 [label=<entropy = 1.0<br/>samples = 2<br/>value = [1, 1]>, fillcolor="#ffffff"] ;
216 -> 218 ;
219 [label=<entropy = 1.0<br/>samples = 2<br/>value = [1, 1]>, fillcolor="#ffffff"] ;
215 -> 219 ;
220 [label=<age &le; 55.5<br/>entropy = 0.918<br/>samples = 3<br/>value = [2, 1]>, fillcolor="#f2c09c"] ;
214 -> 220 ;
221 [label=<entropy = 1.0<br/>samples = 2<br/>value = [1, 1]>, fillcolor="#ffffff"] ;
220 -> 221 ;
222 [label=<entropy = 0.0<br/>samples = 1<br/>value = [1, 0]>, fillcolor="#e58139"] ;
220 -> 222 ;
223 [label=<entropy = 0.0<br/>samples = 1<br/>value = [1, 0]>, fillcolor="#e58139"] ;
213 -> 223 ;
224 [label=<entropy = 0.0<br/>samples = 4<br/>value = [0, 4]>, fillcolor="#399de5"] ;
212 -> 224 ;
225 [label=<physical_score &le; 32.15<br/>entropy = 0.592<br/>samples = 7<br/>value = [6, 1]>, fillcolor="#e9965a"] ;
211 -> 225 ;
226 [label=<entropy = 0.0<br/>samples = 5<br/>value = [5, 0]>, fillcolor="#e58139"] ;
225 -> 226 ;
227 [label=<entropy = 1.0<br/>samples = 2<br/>value = [1, 1]>, fillcolor="#ffffff"] ;
225 -> 227 ;
228 [label=<entropy = 0.0<br/>samples = 2<br/>value = [0, 2]>, fillcolor="#399de5"] ;
208 -> 228 ;
229 [label=<physical_score &le; 30.95<br/>entropy = 0.887<br/>samples = 23<br/>value = [7, 16]>, fillcolor="#90c8f0"] ;
163 -> 229 ;
230 [label=<physical_score &le; 30.85<br/>entropy = 0.811<br/>samples = 4<br/>value = [3, 1]>, fillcolor="#eeab7b"] ;
229 -> 230 ;
231 [label=<physical_score &le; 30.75<br/>entropy = 1.0<br/>samples = 2<br/>value = [1, 1]>, fillcolor="#ffffff"] ;
230 -> 231 ;
232 [label=<entropy = 0.0<br/>samples = 1<br/>value = [1, 0]>, fillcolor="#e58139"] ;
231 -> 232 ;
233 [label=<entropy = 0.0<br/>samples = 1<br/>value = [0, 1]>, fillcolor="#399de5"] ;
231 -> 233 ;
234 [label=<entropy = 0.0<br/>samples = 2<br/>value = [2, 0]>, fillcolor="#e58139"] ;
230 -> 234 ;
235 [label=<physical_score &le; 31.85<br/>entropy = 0.742<br/>samples = 19<br/>value = [4, 15]>, fillcolor="#6eb7ec"] ;
229 -> 235 ;
236 [label=<age &le; 57.5<br/>entropy = 0.391<br/>samples = 13<br/>value = [1, 12]>, fillcolor="#49a5e7"] ;
235 -> 236 ;
237 [label=<entropy = 0.0<br/>samples = 7<br/>value = [0, 7]>, fillcolor="#399de5"] ;
236 -> 237 ;
238 [label=<physical_score &le; 31.35<br/>entropy = 0.65<br/>samples = 6<br/>value = [1, 5]>, fillcolor="#61b1ea"] ;
236 -> 238 ;
239 [label=<entropy = 0.0<br/>samples = 3<br/>value = [0, 3]>, fillcolor="#399de5"] ;
238 -> 239 ;
240 [label=<physical_score &le; 31.5<br/>entropy = 0.918<br/>samples = 3<br/>value = [1, 2]>, fillcolor="#9ccef2"] ;
238 -> 240 ;
241 [label=<entropy = 0.0<br/>samples = 1<br/>value = [1, 0]>, fillcolor="#e58139"] ;
240 -> 241 ;
242 [label=<entropy = 0.0<br/>samples = 2<br/>value = [0, 2]>, fillcolor="#399de5"] ;
240 -> 242 ;
243 [label=<physical_score &le; 32.25<br/>entropy = 1.0<br/>samples = 6<br/>value = [3, 3]>, fillcolor="#ffffff"] ;
235 -> 243 ;
244 [label=<physical_score &le; 32.15<br/>entropy = 0.971<br/>samples = 5<br/>value = [2, 3]>, fillcolor="#bddef6"] ;
243 -> 244 ;
245 [label=<age &le; 57.5<br/>entropy = 1.0<br/>samples = 4<br/>value = [2, 2]>, fillcolor="#ffffff"] ;
244 -> 245 ;
246 [label=<physical_score &le; 32.05<br/>entropy = 0.918<br/>samples = 3<br/>value = [1, 2]>, fillcolor="#9ccef2"] ;
245 -> 246 ;
247 [label=<entropy = 0.0<br/>samples = 1<br/>value = [0, 1]>, fillcolor="#399de5"] ;
246 -> 247 ;
248 [label=<entropy = 1.0<br/>samples = 2<br/>value = [1, 1]>, fillcolor="#ffffff"] ;
246 -> 248 ;
249 [label=<entropy = 0.0<br/>samples = 1<br/>value = [1, 0]>, fillcolor="#e58139"] ;
245 -> 249 ;
250 [label=<entropy = 0.0<br/>samples = 1<br/>value = [0, 1]>, fillcolor="#399de5"] ;
244 -> 250 ;
251 [label=<entropy = 0.0<br/>samples = 1<br/>value = [1, 0]>, fillcolor="#e58139"] ;
243 -> 251 ;
252 [label=<age &le; 60.5<br/>entropy = 0.984<br/>samples = 40<br/>value = [23, 17]>, fillcolor="#f8decb"] ;
162 -> 252 ;
253 [label=<physical_score &le; 31.65<br/>entropy = 0.852<br/>samples = 18<br/>value = [13, 5]>, fillcolor="#efb185"] ;
252 -> 253 ;
254 [label=<physical_score &le; 30.95<br/>entropy = 0.469<br/>samples = 10<br/>value = [9, 1]>, fillcolor="#e88f4f"] ;
253 -> 254 ;
255 [label=<entropy = 1.0<br/>samples = 2<br/>value = [1, 1]>, fillcolor="#ffffff"] ;
254 -> 255 ;
256 [label=<entropy = 0.0<br/>samples = 8<br/>value = [8, 0]>, fillcolor="#e58139"] ;
254 -> 256 ;
257 [label=<physical_score &le; 31.85<br/>entropy = 1.0<br/>samples = 8<br/>value = [4, 4]>, fillcolor="#ffffff"] ;
253 -> 257 ;
258 [label=<entropy = 0.0<br/>samples = 2<br/>value = [0, 2]>, fillcolor="#399de5"] ;
257 -> 258 ;
259 [label=<physical_score &le; 31.95<br/>entropy = 0.918<br/>samples = 6<br/>value = [4, 2]>, fillcolor="#f2c09c"] ;
257 -> 259 ;
260 [label=<entropy = 0.0<br/>samples = 1<br/>value = [1, 0]>, fillcolor="#e58139"] ;
259 -> 260 ;
261 [label=<age &le; 59.5<br/>entropy = 0.971<br/>samples = 5<br/>value = [3, 2]>, fillcolor="#f6d5bd"] ;
259 -> 261 ;
262 [label=<physical_score &le; 32.2<br/>entropy = 0.811<br/>samples = 4<br/>value = [3, 1]>, fillcolor="#eeab7b"] ;
261 -> 262 ;
263 [label=<entropy = 0.918<br/>samples = 3<br/>value = [2, 1]>, fillcolor="#f2c09c"] ;
262 -> 263 ;
264 [label=<entropy = 0.0<br/>samples = 1<br/>value = [1, 0]>, fillcolor="#e58139"] ;
262 -> 264 ;
265 [label=<entropy = 0.0<br/>samples = 1<br/>value = [0, 1]>, fillcolor="#399de5"] ;
261 -> 265 ;
266 [label=<physical_score &le; 30.95<br/>entropy = 0.994<br/>samples = 22<br/>value = [10, 12]>, fillcolor="#deeffb"] ;
252 -> 266 ;
267 [label=<age &le; 62.5<br/>entropy = 0.863<br/>samples = 7<br/>value = [2, 5]>, fillcolor="#88c4ef"] ;
266 -> 267 ;
268 [label=<physical_score &le; 30.8<br/>entropy = 0.65<br/>samples = 6<br/>value = [1, 5]>, fillcolor="#61b1ea"] ;
267 -> 268 ;
269 [label=<age &le; 61.5<br/>entropy = 0.811<br/>samples = 4<br/>value = [1, 3]>, fillcolor="#7bbeee"] ;
268 -> 269 ;
270 [label=<entropy = 0.0<br/>samples = 1<br/>value = [0, 1]>, fillcolor="#399de5"] ;
269 -> 270 ;
271 [label=<entropy = 0.918<br/>samples = 3<br/>value = [1, 2]>, fillcolor="#9ccef2"] ;
269 -> 271 ;
272 [label=<entropy = 0.0<br/>samples = 2<br/>value = [0, 2]>, fillcolor="#399de5"] ;
268 -> 272 ;
273 [label=<entropy = 0.0<br/>samples = 1<br/>value = [1, 0]>, fillcolor="#e58139"] ;
267 -> 273 ;
274 [label=<physical_score &le; 31.65<br/>entropy = 0.997<br/>samples = 15<br/>value = [8, 7]>, fillcolor="#fcefe6"] ;
266 -> 274 ;
275 [label=<physical_score &le; 31.25<br/>entropy = 0.918<br/>samples = 9<br/>value = [6, 3]>, fillcolor="#f2c09c"] ;
274 -> 275 ;
276 [label=<age &le; 61.5<br/>entropy = 1.0<br/>samples = 6<br/>value = [3, 3]>, fillcolor="#ffffff"] ;
275 -> 276 ;
277 [label=<entropy = 0.0<br/>samples = 1<br/>value = [0, 1]>, fillcolor="#399de5"] ;
276 -> 277 ;
278 [label=<age &le; 62.5<br/>entropy = 0.971<br/>samples = 5<br/>value = [3, 2]>, fillcolor="#f6d5bd"] ;
276 -> 278 ;
279 [label=<physical_score &le; 31.05<br/>entropy = 0.811<br/>samples = 4<br/>value = [3, 1]>, fillcolor="#eeab7b"] ;
278 -> 279 ;
280 [label=<entropy = 1.0<br/>samples = 2<br/>value = [1, 1]>, fillcolor="#ffffff"] ;
279 -> 280 ;
281 [label=<entropy = 0.0<br/>samples = 2<br/>value = [2, 0]>, fillcolor="#e58139"] ;
279 -> 281 ;
282 [label=<entropy = 0.0<br/>samples = 1<br/>value = [0, 1]>, fillcolor="#399de5"] ;
278 -> 282 ;
283 [label=<entropy = 0.0<br/>samples = 3<br/>value = [3, 0]>, fillcolor="#e58139"] ;
275 -> 283 ;
284 [label=<age &le; 62.5<br/>entropy = 0.918<br/>samples = 6<br/>value = [2, 4]>, fillcolor="#9ccef2"] ;
274 -> 284 ;
285 [label=<physical_score &le; 32.05<br/>entropy = 0.918<br/>samples = 3<br/>value = [2, 1]>, fillcolor="#f2c09c"] ;
284 -> 285 ;
286 [label=<entropy = 0.0<br/>samples = 1<br/>value = [0, 1]>, fillcolor="#399de5"] ;
285 -> 286 ;
287 [label=<entropy = 0.0<br/>samples = 2<br/>value = [2, 0]>, fillcolor="#e58139"] ;
285 -> 287 ;
288 [label=<entropy = 0.0<br/>samples = 3<br/>value = [0, 3]>, fillcolor="#399de5"] ;
284 -> 288 ;
289 [label=<age &le; 62.5<br/>entropy = 0.901<br/>samples = 123<br/>value = [39, 84]>, fillcolor="#95caf1"] ;
161 -> 289 ;
290 [label=<physical_score &le; 32.95<br/>entropy = 0.91<br/>samples = 120<br/>value = [39, 81]>, fillcolor="#98ccf2"] ;
289 -> 290 ;
291 [label=<age &le; 48.5<br/>entropy = 0.963<br/>samples = 49<br/>value = [19, 30]>, fillcolor="#b6dbf5"] ;
290 -> 291 ;
292 [label=<entropy = 0.0<br/>samples = 1<br/>value = [1, 0]>, fillcolor="#e58139"] ;
291 -> 292 ;
293 [label=<physical_score &le; 32.65<br/>entropy = 0.954<br/>samples = 48<br/>value = [18, 30]>, fillcolor="#b0d8f5"] ;
291 -> 293 ;
294 [label=<age &le; 51.5<br/>entropy = 0.863<br/>samples = 21<br/>value = [6, 15]>, fillcolor="#88c4ef"] ;
293 -> 294 ;
295 [label=<entropy = 0.0<br/>samples = 3<br/>value = [0, 3]>, fillcolor="#399de5"] ;
294 -> 295 ;
296 [label=<physical_score &le; 32.55<br/>entropy = 0.918<br/>samples = 18<br/>value = [6, 12]>, fillcolor="#9ccef2"] ;
294 -> 296 ;
297 [label=<age &le; 60.5<br/>entropy = 0.811<br/>samples = 12<br/>value = [3, 9]>, fillcolor="#7bbeee"] ;
296 -> 297 ;
298 [label=<age &le; 56.5<br/>entropy = 0.684<br/>samples = 11<br/>value = [2, 9]>, fillcolor="#65b3eb"] ;
297 -> 298 ;
299 [label=<age &le; 52.5<br/>entropy = 0.971<br/>samples = 5<br/>value = [2, 3]>, fillcolor="#bddef6"] ;
298 -> 299 ;
300 [label=<entropy = 1.0<br/>samples = 2<br/>value = [1, 1]>, fillcolor="#ffffff"] ;
299 -> 300 ;
301 [label=<age &le; 54.5<br/>entropy = 0.918<br/>samples = 3<br/>value = [1, 2]>, fillcolor="#9ccef2"] ;
299 -> 301 ;
302 [label=<entropy = 0.0<br/>samples = 1<br/>value = [0, 1]>, fillcolor="#399de5"] ;
301 -> 302 ;
303 [label=<entropy = 1.0<br/>samples = 2<br/>value = [1, 1]>, fillcolor="#ffffff"] ;
301 -> 303 ;
304 [label=<entropy = 0.0<br/>samples = 6<br/>value = [0, 6]>, fillcolor="#399de5"] ;
298 -> 304 ;
305 [label=<entropy = 0.0<br/>samples = 1<br/>value = [1, 0]>, fillcolor="#e58139"] ;
297 -> 305 ;
306 [label=<age &le; 57.5<br/>entropy = 1.0<br/>samples = 6<br/>value = [3, 3]>, fillcolor="#ffffff"] ;
296 -> 306 ;
307 [label=<entropy = 0.0<br/>samples = 1<br/>value = [1, 0]>, fillcolor="#e58139"] ;
306 -> 307 ;
308 [label=<age &le; 59.0<br/>entropy = 0.971<br/>samples = 5<br/>value = [2, 3]>, fillcolor="#bddef6"] ;
306 -> 308 ;
309 [label=<entropy = 0.0<br/>samples = 1<br/>value = [0, 1]>, fillcolor="#399de5"] ;
308 -> 309 ;
310 [label=<age &le; 60.5<br/>entropy = 1.0<br/>samples = 4<br/>value = [2, 2]>, fillcolor="#ffffff"] ;
308 -> 310 ;
311 [label=<entropy = 0.0<br/>samples = 1<br/>value = [1, 0]>, fillcolor="#e58139"] ;
310 -> 311 ;
312 [label=<age &le; 61.5<br/>entropy = 0.918<br/>samples = 3<br/>value = [1, 2]>, fillcolor="#9ccef2"] ;
310 -> 312 ;
313 [label=<entropy = 1.0<br/>samples = 2<br/>value = [1, 1]>, fillcolor="#ffffff"] ;
312 -> 313 ;
314 [label=<entropy = 0.0<br/>samples = 1<br/>value = [0, 1]>, fillcolor="#399de5"] ;
312 -> 314 ;
315 [label=<age &le; 49.5<br/>entropy = 0.991<br/>samples = 27<br/>value = [12, 15]>, fillcolor="#d7ebfa"] ;
293 -> 315 ;
316 [label=<entropy = 0.0<br/>samples = 1<br/>value = [0, 1]>, fillcolor="#399de5"] ;
315 -> 316 ;
317 [label=<age &le; 51.0<br/>entropy = 0.996<br/>samples = 26<br/>value = [12, 14]>, fillcolor="#e3f1fb"] ;
315 -> 317 ;
318 [label=<entropy = 0.0<br/>samples = 1<br/>value = [1, 0]>, fillcolor="#e58139"] ;
317 -> 318 ;
319 [label=<physical_score &le; 32.75<br/>entropy = 0.99<br/>samples = 25<br/>value = [11, 14]>, fillcolor="#d5eaf9"] ;
317 -> 319 ;
320 [label=<age &le; 56.0<br/>entropy = 0.991<br/>samples = 9<br/>value = [5, 4]>, fillcolor="#fae6d7"] ;
319 -> 320 ;
321 [label=<age &le; 54.5<br/>entropy = 0.971<br/>samples = 5<br/>value = [2, 3]>, fillcolor="#bddef6"] ;
320 -> 321 ;
322 [label=<age &le; 53.5<br/>entropy = 1.0<br/>samples = 4<br/>value = [2, 2]>, fillcolor="#ffffff"] ;
321 -> 322 ;
323 [label=<age &le; 52.5<br/>entropy = 0.918<br/>samples = 3<br/>value = [1, 2]>, fillcolor="#9ccef2"] ;
322 -> 323 ;
324 [label=<entropy = 1.0<br/>samples = 2<br/>value = [1, 1]>, fillcolor="#ffffff"] ;
323 -> 324 ;
325 [label=<entropy = 0.0<br/>samples = 1<br/>value = [0, 1]>, fillcolor="#399de5"] ;
323 -> 325 ;
326 [label=<entropy = 0.0<br/>samples = 1<br/>value = [1, 0]>, fillcolor="#e58139"] ;
322 -> 326 ;
327 [label=<entropy = 0.0<br/>samples = 1<br/>value = [0, 1]>, fillcolor="#399de5"] ;
321 -> 327 ;
328 [label=<age &le; 60.0<br/>entropy = 0.811<br/>samples = 4<br/>value = [3, 1]>, fillcolor="#eeab7b"] ;
320 -> 328 ;
329 [label=<entropy = 0.0<br/>samples = 2<br/>value = [2, 0]>, fillcolor="#e58139"] ;
328 -> 329 ;
330 [label=<entropy = 1.0<br/>samples = 2<br/>value = [1, 1]>, fillcolor="#ffffff"] ;
328 -> 330 ;
331 [label=<age &le; 60.5<br/>entropy = 0.954<br/>samples = 16<br/>value = [6, 10]>, fillcolor="#b0d8f5"] ;
319 -> 331 ;
332 [label=<age &le; 57.5<br/>entropy = 0.985<br/>samples = 14<br/>value = [6, 8]>, fillcolor="#cee6f8"] ;
331 -> 332 ;
333 [label=<physical_score &le; 32.85<br/>entropy = 0.863<br/>samples = 7<br/>value = [2, 5]>, fillcolor="#88c4ef"] ;
332 -> 333 ;
334 [label=<entropy = 0.0<br/>samples = 2<br/>value = [0, 2]>, fillcolor="#399de5"] ;
333 -> 334 ;
335 [label=<age &le; 52.5<br/>entropy = 0.971<br/>samples = 5<br/>value = [2, 3]>, fillcolor="#bddef6"] ;
333 -> 335 ;
336 [label=<entropy = 0.0<br/>samples = 1<br/>value = [0, 1]>, fillcolor="#399de5"] ;
335 -> 336 ;
337 [label=<age &le; 55.0<br/>entropy = 1.0<br/>samples = 4<br/>value = [2, 2]>, fillcolor="#ffffff"] ;
335 -> 337 ;
338 [label=<entropy = 1.0<br/>samples = 2<br/>value = [1, 1]>, fillcolor="#ffffff"] ;
337 -> 338 ;
339 [label=<entropy = 1.0<br/>samples = 2<br/>value = [1, 1]>, fillcolor="#ffffff"] ;
337 -> 339 ;
340 [label=<physical_score &le; 32.85<br/>entropy = 0.985<br/>samples = 7<br/>value = [4, 3]>, fillcolor="#f8e0ce"] ;
332 -> 340 ;
341 [label=<entropy = 0.918<br/>samples = 3<br/>value = [2, 1]>, fillcolor="#f2c09c"] ;
340 -> 341 ;
342 [label=<age &le; 59.0<br/>entropy = 1.0<br/>samples = 4<br/>value = [2, 2]>, fillcolor="#ffffff"] ;
340 -> 342 ;
343 [label=<entropy = 1.0<br/>samples = 2<br/>value = [1, 1]>, fillcolor="#ffffff"] ;
342 -> 343 ;
344 [label=<entropy = 1.0<br/>samples = 2<br/>value = [1, 1]>, fillcolor="#ffffff"] ;
342 -> 344 ;
345 [label=<entropy = 0.0<br/>samples = 2<br/>value = [0, 2]>, fillcolor="#399de5"] ;
331 -> 345 ;
346 [label=<physical_score &le; 33.35<br/>entropy = 0.858<br/>samples = 71<br/>value = [20, 51]>, fillcolor="#87c3ef"] ;
290 -> 346 ;
347 [label=<age &le; 61.5<br/>entropy = 0.789<br/>samples = 55<br/>value = [13, 42]>, fillcolor="#76bbed"] ;
346 -> 347 ;
348 [label=<physical_score &le; 33.25<br/>entropy = 0.744<br/>samples = 52<br/>value = [11, 41]>, fillcolor="#6eb7ec"] ;
347 -> 348 ;
349 [label=<age &le; 56.5<br/>entropy = 0.811<br/>samples = 44<br/>value = [11, 33]>, fillcolor="#7bbeee"] ;
348 -> 349 ;
350 [label=<age &le; 52.5<br/>entropy = 0.894<br/>samples = 29<br/>value = [9, 20]>, fillcolor="#92c9f1"] ;
349 -> 350 ;
351 [label=<physical_score &le; 33.05<br/>entropy = 0.787<br/>samples = 17<br/>value = [4, 13]>, fillcolor="#76bbed"] ;
350 -> 351 ;
352 [label=<entropy = 0.0<br/>samples = 3<br/>value = [0, 3]>, fillcolor="#399de5"] ;
351 -> 352 ;
353 [label=<age &le; 51.5<br/>entropy = 0.863<br/>samples = 14<br/>value = [4, 10]>, fillcolor="#88c4ef"] ;
351 -> 353 ;
354 [label=<age &le; 49.5<br/>entropy = 0.89<br/>samples = 13<br/>value = [4, 9]>, fillcolor="#91c9f1"] ;
353 -> 354 ;
355 [label=<physical_score &le; 33.15<br/>entropy = 0.971<br/>samples = 5<br/>value = [2, 3]>, fillcolor="#bddef6"] ;
354 -> 355 ;
356 [label=<entropy = 1.0<br/>samples = 2<br/>value = [1, 1]>, fillcolor="#ffffff"] ;
355 -> 356 ;
357 [label=<age &le; 48.5<br/>entropy = 0.918<br/>samples = 3<br/>value = [1, 2]>, fillcolor="#9ccef2"] ;
355 -> 357 ;
358 [label=<entropy = 0.0<br/>samples = 1<br/>value = [0, 1]>, fillcolor="#399de5"] ;
357 -> 358 ;
359 [label=<entropy = 1.0<br/>samples = 2<br/>value = [1, 1]>, fillcolor="#ffffff"] ;
357 -> 359 ;
360 [label=<age &le; 50.5<br/>entropy = 0.811<br/>samples = 8<br/>value = [2, 6]>, fillcolor="#7bbeee"] ;
354 -> 360 ;
361 [label=<entropy = 0.0<br/>samples = 2<br/>value = [0, 2]>, fillcolor="#399de5"] ;
360 -> 361 ;
362 [label=<physical_score &le; 33.15<br/>entropy = 0.918<br/>samples = 6<br/>value = [2, 4]>, fillcolor="#9ccef2"] ;
360 -> 362 ;
363 [label=<entropy = 1.0<br/>samples = 2<br/>value = [1, 1]>, fillcolor="#ffffff"] ;
362 -> 363 ;
364 [label=<entropy = 0.811<br/>samples = 4<br/>value = [1, 3]>, fillcolor="#7bbeee"] ;
362 -> 364 ;
365 [label=<entropy = 0.0<br/>samples = 1<br/>value = [0, 1]>, fillcolor="#399de5"] ;
353 -> 365 ;
366 [label=<physical_score &le; 33.15<br/>entropy = 0.98<br/>samples = 12<br/>value = [5, 7]>, fillcolor="#c6e3f8"] ;
350 -> 366 ;
367 [label=<age &le; 53.5<br/>entropy = 0.918<br/>samples = 9<br/>value = [3, 6]>, fillcolor="#9ccef2"] ;
366 -> 367 ;
368 [label=<entropy = 0.0<br/>samples = 2<br/>value = [0, 2]>, fillcolor="#399de5"] ;
367 -> 368 ;
369 [label=<physical_score &le; 33.05<br/>entropy = 0.985<br/>samples = 7<br/>value = [3, 4]>, fillcolor="#cee6f8"] ;
367 -> 369 ;
370 [label=<age &le; 55.5<br/>entropy = 0.918<br/>samples = 3<br/>value = [2, 1]>, fillcolor="#f2c09c"] ;
369 -> 370 ;
371 [label=<entropy = 0.0<br/>samples = 2<br/>value = [2, 0]>, fillcolor="#e58139"] ;
370 -> 371 ;
372 [label=<entropy = 0.0<br/>samples = 1<br/>value = [0, 1]>, fillcolor="#399de5"] ;
370 -> 372 ;
373 [label=<age &le; 55.5<br/>entropy = 0.811<br/>samples = 4<br/>value = [1, 3]>, fillcolor="#7bbeee"] ;
369 -> 373 ;
374 [label=<entropy = 0.0<br/>samples = 3<br/>value = [0, 3]>, fillcolor="#399de5"] ;
373 -> 374 ;
375 [label=<entropy = 0.0<br/>samples = 1<br/>value = [1, 0]>, fillcolor="#e58139"] ;
373 -> 375 ;
376 [label=<age &le; 55.0<br/>entropy = 0.918<br/>samples = 3<br/>value = [2, 1]>, fillcolor="#f2c09c"] ;
366 -> 376 ;
377 [label=<entropy = 0.0<br/>samples = 2<br/>value = [2, 0]>, fillcolor="#e58139"] ;
376 -> 377 ;
378 [label=<entropy = 0.0<br/>samples = 1<br/>value = [0, 1]>, fillcolor="#399de5"] ;
376 -> 378 ;
379 [label=<age &le; 58.5<br/>entropy = 0.567<br/>samples = 15<br/>value = [2, 13]>, fillcolor="#57ace9"] ;
349 -> 379 ;
380 [label=<entropy = 0.0<br/>samples = 9<br/>value = [0, 9]>, fillcolor="#399de5"] ;
379 -> 380 ;
381 [label=<physical_score &le; 33.05<br/>entropy = 0.918<br/>samples = 6<br/>value = [2, 4]>, fillcolor="#9ccef2"] ;
379 -> 381 ;
382 [label=<entropy = 0.0<br/>samples = 2<br/>value = [0, 2]>, fillcolor="#399de5"] ;
381 -> 382 ;
383 [label=<age &le; 60.0<br/>entropy = 1.0<br/>samples = 4<br/>value = [2, 2]>, fillcolor="#ffffff"] ;
381 -> 383 ;
384 [label=<entropy = 0.0<br/>samples = 1<br/>value = [1, 0]>, fillcolor="#e58139"] ;
383 -> 384 ;
385 [label=<physical_score &le; 33.15<br/>entropy = 0.918<br/>samples = 3<br/>value = [1, 2]>, fillcolor="#9ccef2"] ;
383 -> 385 ;
386 [label=<entropy = 1.0<br/>samples = 2<br/>value = [1, 1]>, fillcolor="#ffffff"] ;
385 -> 386 ;
387 [label=<entropy = 0.0<br/>samples = 1<br/>value = [0, 1]>, fillcolor="#399de5"] ;
385 -> 387 ;
388 [label=<entropy = 0.0<br/>samples = 8<br/>value = [0, 8]>, fillcolor="#399de5"] ;
348 -> 388 ;
389 [label=<physical_score &le; 33.05<br/>entropy = 0.918<br/>samples = 3<br/>value = [2, 1]>, fillcolor="#f2c09c"] ;
347 -> 389 ;
390 [label=<entropy = 0.0<br/>samples = 1<br/>value = [0, 1]>, fillcolor="#399de5"] ;
389 -> 390 ;
391 [label=<entropy = 0.0<br/>samples = 2<br/>value = [2, 0]>, fillcolor="#e58139"] ;
389 -> 391 ;
392 [label=<age &le; 59.5<br/>entropy = 0.989<br/>samples = 16<br/>value = [7, 9]>, fillcolor="#d3e9f9"] ;
346 -> 392 ;
393 [label=<age &le; 53.5<br/>entropy = 0.971<br/>samples = 15<br/>value = [6, 9]>, fillcolor="#bddef6"] ;
392 -> 393 ;
394 [label=<age &le; 47.5<br/>entropy = 0.991<br/>samples = 9<br/>value = [5, 4]>, fillcolor="#fae6d7"] ;
393 -> 394 ;
395 [label=<entropy = 0.0<br/>samples = 1<br/>value = [0, 1]>, fillcolor="#399de5"] ;
394 -> 395 ;
396 [label=<age &le; 50.5<br/>entropy = 0.954<br/>samples = 8<br/>value = [5, 3]>, fillcolor="#f5cdb0"] ;
394 -> 396 ;
397 [label=<entropy = 0.0<br/>samples = 2<br/>value = [2, 0]>, fillcolor="#e58139"] ;
396 -> 397 ;
398 [label=<age &le; 51.5<br/>entropy = 1.0<br/>samples = 6<br/>value = [3, 3]>, fillcolor="#ffffff"] ;
396 -> 398 ;
399 [label=<entropy = 0.918<br/>samples = 3<br/>value = [1, 2]>, fillcolor="#9ccef2"] ;
398 -> 399 ;
400 [label=<age &le; 52.5<br/>entropy = 0.918<br/>samples = 3<br/>value = [2, 1]>, fillcolor="#f2c09c"] ;
398 -> 400 ;
401 [label=<entropy = 0.0<br/>samples = 1<br/>value = [1, 0]>, fillcolor="#e58139"] ;
400 -> 401 ;
402 [label=<entropy = 1.0<br/>samples = 2<br/>value = [1, 1]>, fillcolor="#ffffff"] ;
400 -> 402 ;
403 [label=<age &le; 58.5<br/>entropy = 0.65<br/>samples = 6<br/>value = [1, 5]>, fillcolor="#61b1ea"] ;
393 -> 403 ;
404 [label=<entropy = 0.0<br/>samples = 4<br/>value = [0, 4]>, fillcolor="#399de5"] ;
403 -> 404 ;
405 [label=<entropy = 1.0<br/>samples = 2<br/>value = [1, 1]>, fillcolor="#ffffff"] ;
403 -> 405 ;
406 [label=<entropy = 0.0<br/>samples = 1<br/>value = [1, 0]>, fillcolor="#e58139"] ;
392 -> 406 ;
407 [label=<entropy = 0.0<br/>samples = 3<br/>value = [0, 3]>, fillcolor="#399de5"] ;
289 -> 407 ;
408 [label=<age &le; 40.5<br/>entropy = 0.639<br/>samples = 148<br/>value = [24, 124]>, fillcolor="#5fb0ea"] ;
134 -> 408 ;
409 [label=<entropy = 0.0<br/>samples = 2<br/>value = [2, 0]>, fillcolor="#e58139"] ;
408 -> 409 ;
410 [label=<age &le; 55.5<br/>entropy = 0.612<br/>samples = 146<br/>value = [22, 124]>, fillcolor="#5caeea"] ;
408 -> 410 ;
411 [label=<physical_score &le; 33.75<br/>entropy = 0.446<br/>samples = 97<br/>value = [9, 88]>, fillcolor="#4da7e8"] ;
410 -> 411 ;
412 [label=<physical_score &le; 33.65<br/>entropy = 0.722<br/>samples = 20<br/>value = [4, 16]>, fillcolor="#6ab6ec"] ;
411 -> 412 ;
413 [label=<entropy = 0.0<br/>samples = 11<br/>value = [0, 11]>, fillcolor="#399de5"] ;
412 -> 413 ;
414 [label=<age &le; 54.5<br/>entropy = 0.991<br/>samples = 9<br/>value = [4, 5]>, fillcolor="#d7ebfa"] ;
412 -> 414 ;
415 [label=<age &le; 46.0<br/>entropy = 0.985<br/>samples = 7<br/>value = [4, 3]>, fillcolor="#f8e0ce"] ;
414 -> 415 ;
416 [label=<entropy = 0.0<br/>samples = 1<br/>value = [1, 0]>, fillcolor="#e58139"] ;
415 -> 416 ;
417 [label=<age &le; 52.0<br/>entropy = 1.0<br/>samples = 6<br/>value = [3, 3]>, fillcolor="#ffffff"] ;
415 -> 417 ;
418 [label=<entropy = 0.0<br/>samples = 2<br/>value = [0, 2]>, fillcolor="#399de5"] ;
417 -> 418 ;
419 [label=<age &le; 53.5<br/>entropy = 0.811<br/>samples = 4<br/>value = [3, 1]>, fillcolor="#eeab7b"] ;
417 -> 419 ;
420 [label=<entropy = 0.918<br/>samples = 3<br/>value = [2, 1]>, fillcolor="#f2c09c"] ;
419 -> 420 ;
421 [label=<entropy = 0.0<br/>samples = 1<br/>value = [1, 0]>, fillcolor="#e58139"] ;
419 -> 421 ;
422 [label=<entropy = 0.0<br/>samples = 2<br/>value = [0, 2]>, fillcolor="#399de5"] ;
414 -> 422 ;
423 [label=<physical_score &le; 34.35<br/>entropy = 0.347<br/>samples = 77<br/>value = [5, 72]>, fillcolor="#47a4e7"] ;
411 -> 423 ;
424 [label=<physical_score &le; 33.85<br/>entropy = 0.391<br/>samples = 65<br/>value = [5, 60]>, fillcolor="#49a5e7"] ;
423 -> 424 ;
425 [label=<entropy = 0.0<br/>samples = 8<br/>value = [0, 8]>, fillcolor="#399de5"] ;
424 -> 425 ;
426 [label=<age &le; 48.5<br/>entropy = 0.429<br/>samples = 57<br/>value = [5, 52]>, fillcolor="#4ca6e8"] ;
424 -> 426 ;
427 [label=<age &le; 44.5<br/>entropy = 0.559<br/>samples = 23<br/>value = [3, 20]>, fillcolor="#57ace9"] ;
426 -> 427 ;
428 [label=<entropy = 0.0<br/>samples = 3<br/>value = [0, 3]>, fillcolor="#399de5"] ;
427 -> 428 ;
429 [label=<age &le; 45.5<br/>entropy = 0.61<br/>samples = 20<br/>value = [3, 17]>, fillcolor="#5caeea"] ;
427 -> 429 ;
430 [label=<physical_score &le; 34.25<br/>entropy = 0.811<br/>samples = 4<br/>value = [1, 3]>, fillcolor="#7bbeee"] ;
429 -> 430 ;
431 [label=<entropy = 0.0<br/>samples = 2<br/>value = [0, 2]>, fillcolor="#399de5"] ;
430 -> 431 ;
432 [label=<entropy = 1.0<br/>samples = 2<br/>value = [1, 1]>, fillcolor="#ffffff"] ;
430 -> 432 ;
433 [label=<physical_score &le; 34.15<br/>entropy = 0.544<br/>samples = 16<br/>value = [2, 14]>, fillcolor="#55abe9"] ;
429 -> 433 ;
434 [label=<age &le; 47.5<br/>entropy = 0.684<br/>samples = 11<br/>value = [2, 9]>, fillcolor="#65b3eb"] ;
433 -> 434 ;
435 [label=<physical_score &le; 34.0<br/>entropy = 0.592<br/>samples = 7<br/>value = [1, 6]>, fillcolor="#5aade9"] ;
434 -> 435 ;
436 [label=<age &le; 46.5<br/>entropy = 0.811<br/>samples = 4<br/>value = [1, 3]>, fillcolor="#7bbeee"] ;
435 -> 436 ;
437 [label=<entropy = 0.918<br/>samples = 3<br/>value = [1, 2]>, fillcolor="#9ccef2"] ;
436 -> 437 ;
438 [label=<entropy = 0.0<br/>samples = 1<br/>value = [0, 1]>, fillcolor="#399de5"] ;
436 -> 438 ;
439 [label=<entropy = 0.0<br/>samples = 3<br/>value = [0, 3]>, fillcolor="#399de5"] ;
435 -> 439 ;
440 [label=<physical_score &le; 34.0<br/>entropy = 0.811<br/>samples = 4<br/>value = [1, 3]>, fillcolor="#7bbeee"] ;
434 -> 440 ;
441 [label=<entropy = 0.0<br/>samples = 2<br/>value = [0, 2]>, fillcolor="#399de5"] ;
440 -> 441 ;
442 [label=<entropy = 1.0<br/>samples = 2<br/>value = [1, 1]>, fillcolor="#ffffff"] ;
440 -> 442 ;
443 [label=<entropy = 0.0<br/>samples = 5<br/>value = [0, 5]>, fillcolor="#399de5"] ;
433 -> 443 ;
444 [label=<age &le; 50.5<br/>entropy = 0.323<br/>samples = 34<br/>value = [2, 32]>, fillcolor="#45a3e7"] ;
426 -> 444 ;
445 [label=<entropy = 0.0<br/>samples = 10<br/>value = [0, 10]>, fillcolor="#399de5"] ;
444 -> 445 ;
446 [label=<physical_score &le; 34.25<br/>entropy = 0.414<br/>samples = 24<br/>value = [2, 22]>, fillcolor="#4ba6e7"] ;
444 -> 446 ;
447 [label=<age &le; 51.5<br/>entropy = 0.267<br/>samples = 22<br/>value = [1, 21]>, fillcolor="#42a2e6"] ;
446 -> 447 ;
448 [label=<physical_score &le; 34.1<br/>entropy = 0.918<br/>samples = 3<br/>value = [1, 2]>, fillcolor="#9ccef2"] ;
447 -> 448 ;
449 [label=<entropy = 1.0<br/>samples = 2<br/>value = [1, 1]>, fillcolor="#ffffff"] ;
448 -> 449 ;
450 [label=<entropy = 0.0<br/>samples = 1<br/>value = [0, 1]>, fillcolor="#399de5"] ;
448 -> 450 ;
451 [label=<entropy = 0.0<br/>samples = 19<br/>value = [0, 19]>, fillcolor="#399de5"] ;
447 -> 451 ;
452 [label=<age &le; 53.5<br/>entropy = 1.0<br/>samples = 2<br/>value = [1, 1]>, fillcolor="#ffffff"] ;
446 -> 452 ;
453 [label=<entropy = 0.0<br/>samples = 1<br/>value = [0, 1]>, fillcolor="#399de5"] ;
452 -> 453 ;
454 [label=<entropy = 0.0<br/>samples = 1<br/>value = [1, 0]>, fillcolor="#e58139"] ;
452 -> 454 ;
455 [label=<entropy = 0.0<br/>samples = 12<br/>value = [0, 12]>, fillcolor="#399de5"] ;
423 -> 455 ;
456 [label=<physical_score &le; 33.95<br/>entropy = 0.835<br/>samples = 49<br/>value = [13, 36]>, fillcolor="#80c0ee"] ;
410 -> 456 ;
457 [label=<age &le; 61.5<br/>entropy = 0.702<br/>samples = 21<br/>value = [4, 17]>, fillcolor="#68b4eb"] ;
456 -> 457 ;
458 [label=<age &le; 60.5<br/>entropy = 0.787<br/>samples = 17<br/>value = [4, 13]>, fillcolor="#76bbed"] ;
457 -> 458 ;
459 [label=<age &le; 58.5<br/>entropy = 0.592<br/>samples = 14<br/>value = [2, 12]>, fillcolor="#5aade9"] ;
458 -> 459 ;
460 [label=<physical_score &le; 33.75<br/>entropy = 0.65<br/>samples = 12<br/>value = [2, 10]>, fillcolor="#61b1ea"] ;
459 -> 460 ;
461 [label=<physical_score &le; 33.6<br/>entropy = 0.503<br/>samples = 9<br/>value = [1, 8]>, fillcolor="#52a9e8"] ;
460 -> 461 ;
462 [label=<age &le; 57.5<br/>entropy = 0.811<br/>samples = 4<br/>value = [1, 3]>, fillcolor="#7bbeee"] ;
461 -> 462 ;
463 [label=<entropy = 0.0<br/>samples = 1<br/>value = [0, 1]>, fillcolor="#399de5"] ;
462 -> 463 ;
464 [label=<entropy = 0.918<br/>samples = 3<br/>value = [1, 2]>, fillcolor="#9ccef2"] ;
462 -> 464 ;
465 [label=<entropy = 0.0<br/>samples = 5<br/>value = [0, 5]>, fillcolor="#399de5"] ;
461 -> 465 ;
466 [label=<age &le; 56.5<br/>entropy = 0.918<br/>samples = 3<br/>value = [1, 2]>, fillcolor="#9ccef2"] ;
460 -> 466 ;
467 [label=<entropy = 0.0<br/>samples = 1<br/>value = [1, 0]>, fillcolor="#e58139"] ;
466 -> 467 ;
468 [label=<entropy = 0.0<br/>samples = 2<br/>value = [0, 2]>, fillcolor="#399de5"] ;
466 -> 468 ;
469 [label=<entropy = 0.0<br/>samples = 2<br/>value = [0, 2]>, fillcolor="#399de5"] ;
459 -> 469 ;
470 [label=<physical_score &le; 33.65<br/>entropy = 0.918<br/>samples = 3<br/>value = [2, 1]>, fillcolor="#f2c09c"] ;
458 -> 470 ;
471 [label=<entropy = 1.0<br/>samples = 2<br/>value = [1, 1]>, fillcolor="#ffffff"] ;
470 -> 471 ;
472 [label=<entropy = 0.0<br/>samples = 1<br/>value = [1, 0]>, fillcolor="#e58139"] ;
470 -> 472 ;
473 [label=<entropy = 0.0<br/>samples = 4<br/>value = [0, 4]>, fillcolor="#399de5"] ;
457 -> 473 ;
474 [label=<age &le; 61.5<br/>entropy = 0.906<br/>samples = 28<br/>value = [9, 19]>, fillcolor="#97cbf1"] ;
456 -> 474 ;
475 [label=<physical_score &le; 34.35<br/>entropy = 0.855<br/>samples = 25<br/>value = [7, 18]>, fillcolor="#86c3ef"] ;
474 -> 475 ;
476 [label=<age &le; 58.5<br/>entropy = 0.742<br/>samples = 19<br/>value = [4, 15]>, fillcolor="#6eb7ec"] ;
475 -> 476 ;
477 [label=<physical_score &le; 34.05<br/>entropy = 0.881<br/>samples = 10<br/>value = [3, 7]>, fillcolor="#8ec7f0"] ;
476 -> 477 ;
478 [label=<entropy = 0.0<br/>samples = 1<br/>value = [1, 0]>, fillcolor="#e58139"] ;
477 -> 478 ;
479 [label=<physical_score &le; 34.15<br/>entropy = 0.764<br/>samples = 9<br/>value = [2, 7]>, fillcolor="#72b9ec"] ;
477 -> 479 ;
480 [label=<entropy = 0.0<br/>samples = 3<br/>value = [0, 3]>, fillcolor="#399de5"] ;
479 -> 480 ;
481 [label=<age &le; 57.5<br/>entropy = 0.918<br/>samples = 6<br/>value = [2, 4]>, fillcolor="#9ccef2"] ;
479 -> 481 ;
482 [label=<age &le; 56.5<br/>entropy = 0.722<br/>samples = 5<br/>value = [1, 4]>, fillcolor="#6ab6ec"] ;
481 -> 482 ;
483 [label=<physical_score &le; 34.25<br/>entropy = 0.811<br/>samples = 4<br/>value = [1, 3]>, fillcolor="#7bbeee"] ;
482 -> 483 ;
484 [label=<entropy = 0.0<br/>samples = 1<br/>value = [0, 1]>, fillcolor="#399de5"] ;
483 -> 484 ;
485 [label=<entropy = 0.918<br/>samples = 3<br/>value = [1, 2]>, fillcolor="#9ccef2"] ;
483 -> 485 ;
486 [label=<entropy = 0.0<br/>samples = 1<br/>value = [0, 1]>, fillcolor="#399de5"] ;
482 -> 486 ;
487 [label=<entropy = 0.0<br/>samples = 1<br/>value = [1, 0]>, fillcolor="#e58139"] ;
481 -> 487 ;
488 [label=<age &le; 60.5<br/>entropy = 0.503<br/>samples = 9<br/>value = [1, 8]>, fillcolor="#52a9e8"] ;
476 -> 488 ;
489 [label=<entropy = 0.0<br/>samples = 6<br/>value = [0, 6]>, fillcolor="#399de5"] ;
488 -> 489 ;
490 [label=<physical_score &le; 34.05<br/>entropy = 0.918<br/>samples = 3<br/>value = [1, 2]>, fillcolor="#9ccef2"] ;
488 -> 490 ;
491 [label=<entropy = 0.0<br/>samples = 1<br/>value = [0, 1]>, fillcolor="#399de5"] ;
490 -> 491 ;
492 [label=<entropy = 1.0<br/>samples = 2<br/>value = [1, 1]>, fillcolor="#ffffff"] ;
490 -> 492 ;
493 [label=<age &le; 57.0<br/>entropy = 1.0<br/>samples = 6<br/>value = [3, 3]>, fillcolor="#ffffff"] ;
475 -> 493 ;
494 [label=<entropy = 0.0<br/>samples = 1<br/>value = [1, 0]>, fillcolor="#e58139"] ;
493 -> 494 ;
495 [label=<age &le; 58.5<br/>entropy = 0.971<br/>samples = 5<br/>value = [2, 3]>, fillcolor="#bddef6"] ;
493 -> 495 ;
496 [label=<entropy = 0.0<br/>samples = 1<br/>value = [0, 1]>, fillcolor="#399de5"] ;
495 -> 496 ;
497 [label=<age &le; 59.5<br/>entropy = 1.0<br/>samples = 4<br/>value = [2, 2]>, fillcolor="#ffffff"] ;
495 -> 497 ;
498 [label=<entropy = 0.0<br/>samples = 1<br/>value = [1, 0]>, fillcolor="#e58139"] ;
497 -> 498 ;
499 [label=<age &le; 60.5<br/>entropy = 0.918<br/>samples = 3<br/>value = [1, 2]>, fillcolor="#9ccef2"] ;
497 -> 499 ;
500 [label=<entropy = 1.0<br/>samples = 2<br/>value = [1, 1]>, fillcolor="#ffffff"] ;
499 -> 500 ;
501 [label=<entropy = 0.0<br/>samples = 1<br/>value = [0, 1]>, fillcolor="#399de5"] ;
499 -> 501 ;
502 [label=<physical_score &le; 34.2<br/>entropy = 0.918<br/>samples = 3<br/>value = [2, 1]>, fillcolor="#f2c09c"] ;
474 -> 502 ;
503 [label=<entropy = 0.0<br/>samples = 2<br/>value = [2, 0]>, fillcolor="#e58139"] ;
502 -> 503 ;
504 [label=<entropy = 0.0<br/>samples = 1<br/>value = [0, 1]>, fillcolor="#399de5"] ;
502 -> 504 ;
505 [label=<physical_score &le; 33.15<br/>entropy = 0.794<br/>samples = 46<br/>value = [35, 11]>, fillcolor="#eda977"] ;
133 -> 505 ;
506 [label=<physical_score &le; 30.85<br/>entropy = 0.928<br/>samples = 32<br/>value = [21, 11]>, fillcolor="#f3c3a1"] ;
505 -> 506 ;
507 [label=<entropy = 0.0<br/>samples = 3<br/>value = [3, 0]>, fillcolor="#e58139"] ;
506 -> 507 ;
508 [label=<age &le; 64.5<br/>entropy = 0.958<br/>samples = 29<br/>value = [18, 11]>, fillcolor="#f5ceb2"] ;
506 -> 508 ;
509 [label=<entropy = 0.0<br/>samples = 2<br/>value = [0, 2]>, fillcolor="#399de5"] ;
508 -> 509 ;
510 [label=<physical_score &le; 31.25<br/>entropy = 0.918<br/>samples = 27<br/>value = [18, 9]>, fillcolor="#f2c09c"] ;
508 -> 510 ;
511 [label=<age &le; 65.5<br/>entropy = 0.918<br/>samples = 6<br/>value = [2, 4]>, fillcolor="#9ccef2"] ;
510 -> 511 ;
512 [label=<entropy = 0.0<br/>samples = 1<br/>value = [0, 1]>, fillcolor="#399de5"] ;
511 -> 512 ;
513 [label=<physical_score &le; 30.95<br/>entropy = 0.971<br/>samples = 5<br/>value = [2, 3]>, fillcolor="#bddef6"] ;
511 -> 513 ;
514 [label=<entropy = 0.0<br/>samples = 1<br/>value = [0, 1]>, fillcolor="#399de5"] ;
513 -> 514 ;
515 [label=<physical_score &le; 31.1<br/>entropy = 1.0<br/>samples = 4<br/>value = [2, 2]>, fillcolor="#ffffff"] ;
513 -> 515 ;
516 [label=<entropy = 1.0<br/>samples = 2<br/>value = [1, 1]>, fillcolor="#ffffff"] ;
515 -> 516 ;
517 [label=<entropy = 1.0<br/>samples = 2<br/>value = [1, 1]>, fillcolor="#ffffff"] ;
515 -> 517 ;
518 [label=<physical_score &le; 31.75<br/>entropy = 0.792<br/>samples = 21<br/>value = [16, 5]>, fillcolor="#eda877"] ;
510 -> 518 ;
519 [label=<entropy = 0.0<br/>samples = 4<br/>value = [4, 0]>, fillcolor="#e58139"] ;
518 -> 519 ;
520 [label=<physical_score &le; 31.85<br/>entropy = 0.874<br/>samples = 17<br/>value = [12, 5]>, fillcolor="#f0b58b"] ;
518 -> 520 ;
521 [label=<entropy = 0.0<br/>samples = 1<br/>value = [0, 1]>, fillcolor="#399de5"] ;
520 -> 521 ;
522 [label=<physical_score &le; 32.95<br/>entropy = 0.811<br/>samples = 16<br/>value = [12, 4]>, fillcolor="#eeab7b"] ;
520 -> 522 ;
523 [label=<age &le; 70.5<br/>entropy = 0.65<br/>samples = 12<br/>value = [10, 2]>, fillcolor="#ea9a61"] ;
522 -> 523 ;
524 [label=<physical_score &le; 32.3<br/>entropy = 0.439<br/>samples = 11<br/>value = [10, 1]>, fillcolor="#e88e4d"] ;
523 -> 524 ;
525 [label=<physical_score &le; 32.1<br/>entropy = 0.722<br/>samples = 5<br/>value = [4, 1]>, fillcolor="#eca06a"] ;
524 -> 525 ;
526 [label=<entropy = 0.0<br/>samples = 3<br/>value = [3, 0]>, fillcolor="#e58139"] ;
525 -> 526 ;
527 [label=<age &le; 67.0<br/>entropy = 1.0<br/>samples = 2<br/>value = [1, 1]>, fillcolor="#ffffff"] ;
525 -> 527 ;
528 [label=<entropy = 0.0<br/>samples = 1<br/>value = [1, 0]>, fillcolor="#e58139"] ;
527 -> 528 ;
529 [label=<entropy = 0.0<br/>samples = 1<br/>value = [0, 1]>, fillcolor="#399de5"] ;
527 -> 529 ;
530 [label=<entropy = 0.0<br/>samples = 6<br/>value = [6, 0]>, fillcolor="#e58139"] ;
524 -> 530 ;
531 [label=<entropy = 0.0<br/>samples = 1<br/>value = [0, 1]>, fillcolor="#399de5"] ;
523 -> 531 ;
532 [label=<age &le; 72.0<br/>entropy = 1.0<br/>samples = 4<br/>value = [2, 2]>, fillcolor="#ffffff"] ;
522 -> 532 ;
533 [label=<physical_score &le; 33.05<br/>entropy = 0.918<br/>samples = 3<br/>value = [1, 2]>, fillcolor="#9ccef2"] ;
532 -> 533 ;
534 [label=<age &le; 67.0<br/>entropy = 1.0<br/>samples = 2<br/>value = [1, 1]>, fillcolor="#ffffff"] ;
533 -> 534 ;
535 [label=<entropy = 0.0<br/>samples = 1<br/>value = [1, 0]>, fillcolor="#e58139"] ;
534 -> 535 ;
536 [label=<entropy = 0.0<br/>samples = 1<br/>value = [0, 1]>, fillcolor="#399de5"] ;
534 -> 536 ;
537 [label=<entropy = 0.0<br/>samples = 1<br/>value = [0, 1]>, fillcolor="#399de5"] ;
533 -> 537 ;
538 [label=<entropy = 0.0<br/>samples = 1<br/>value = [1, 0]>, fillcolor="#e58139"] ;
532 -> 538 ;
539 [label=<entropy = 0.0<br/>samples = 14<br/>value = [14, 0]>, fillcolor="#e58139"] ;
505 -> 539 ;
540 [label=<age &le; 50.5<br/>entropy = 0.297<br/>samples = 2173<br/>value = [114, 2059]>, fillcolor="#44a2e6"] ;
132 -> 540 ;
541 [label=<age &le; 44.5<br/>entropy = 0.157<br/>samples = 1752<br/>value = [40, 1712]>, fillcolor="#3e9fe6"] ;
540 -> 541 ;
542 [label=<physical_score &le; 34.65<br/>entropy = 0.055<br/>samples = 1106<br/>value = [7, 1099]>, fillcolor="#3a9ee5"] ;
541 -> 542 ;
543 [label=<age &le; 38.0<br/>entropy = 0.811<br/>samples = 4<br/>value = [1, 3]>, fillcolor="#7bbeee"] ;
542 -> 543 ;
544 [label=<entropy = 0.0<br/>samples = 1<br/>value = [1, 0]>, fillcolor="#e58139"] ;
543 -> 544 ;
545 [label=<entropy = 0.0<br/>samples = 3<br/>value = [0, 3]>, fillcolor="#399de5"] ;
543 -> 545 ;
546 [label=<physical_score &le; 42.15<br/>entropy = 0.049<br/>samples = 1102<br/>value = [6, 1096]>, fillcolor="#3a9ee5"] ;
542 -> 546 ;
547 [label=<physical_score &le; 38.55<br/>entropy = 0.034<br/>samples = 855<br/>value = [3, 852]>, fillcolor="#3a9de5"] ;
546 -> 547 ;
548 [label=<physical_score &le; 36.75<br/>entropy = 0.083<br/>samples = 292<br/>value = [3, 289]>, fillcolor="#3b9ee5"] ;
547 -> 548 ;
549 [label=<entropy = 0.0<br/>samples = 98<br/>value = [0, 98]>, fillcolor="#399de5"] ;
548 -> 549 ;
550 [label=<physical_score &le; 37.05<br/>entropy = 0.115<br/>samples = 194<br/>value = [3, 191]>, fillcolor="#3c9fe5"] ;
548 -> 550 ;
551 [label=<age &le; 41.5<br/>entropy = 0.414<br/>samples = 24<br/>value = [2, 22]>, fillcolor="#4ba6e7"] ;
550 -> 551 ;
552 [label=<physical_score &le; 36.85<br/>entropy = 0.65<br/>samples = 12<br/>value = [2, 10]>, fillcolor="#61b1ea"] ;
551 -> 552 ;
553 [label=<age &le; 39.0<br/>entropy = 1.0<br/>samples = 2<br/>value = [1, 1]>, fillcolor="#ffffff"] ;
552 -> 553 ;
554 [label=<entropy = 0.0<br/>samples = 1<br/>value = [1, 0]>, fillcolor="#e58139"] ;
553 -> 554 ;
555 [label=<entropy = 0.0<br/>samples = 1<br/>value = [0, 1]>, fillcolor="#399de5"] ;
553 -> 555 ;
556 [label=<age &le; 40.5<br/>entropy = 0.469<br/>samples = 10<br/>value = [1, 9]>, fillcolor="#4fa8e8"] ;
552 -> 556 ;
557 [label=<entropy = 0.0<br/>samples = 6<br/>value = [0, 6]>, fillcolor="#399de5"] ;
556 -> 557 ;
558 [label=<physical_score &le; 36.95<br/>entropy = 0.811<br/>samples = 4<br/>value = [1, 3]>, fillcolor="#7bbeee"] ;
556 -> 558 ;
559 [label=<entropy = 0.0<br/>samples = 2<br/>value = [0, 2]>, fillcolor="#399de5"] ;
558 -> 559 ;
560 [label=<entropy = 1.0<br/>samples = 2<br/>value = [1, 1]>, fillcolor="#ffffff"] ;
558 -> 560 ;
561 [label=<entropy = 0.0<br/>samples = 12<br/>value = [0, 12]>, fillcolor="#399de5"] ;
551 -> 561 ;
562 [label=<physical_score &le; 38.45<br/>entropy = 0.052<br/>samples = 170<br/>value = [1, 169]>, fillcolor="#3a9ee5"] ;
550 -> 562 ;
563 [label=<entropy = 0.0<br/>samples = 154<br/>value = [0, 154]>, fillcolor="#399de5"] ;
562 -> 563 ;
564 [label=<age &le; 42.5<br/>entropy = 0.337<br/>samples = 16<br/>value = [1, 15]>, fillcolor="#46a4e7"] ;
562 -> 564 ;
565 [label=<entropy = 0.0<br/>samples = 10<br/>value = [0, 10]>, fillcolor="#399de5"] ;
564 -> 565 ;
566 [label=<age &le; 43.5<br/>entropy = 0.65<br/>samples = 6<br/>value = [1, 5]>, fillcolor="#61b1ea"] ;
564 -> 566 ;
567 [label=<entropy = 0.918<br/>samples = 3<br/>value = [1, 2]>, fillcolor="#9ccef2"] ;
566 -> 567 ;
568 [label=<entropy = 0.0<br/>samples = 3<br/>value = [0, 3]>, fillcolor="#399de5"] ;
566 -> 568 ;
569 [label=<entropy = 0.0<br/>samples = 563<br/>value = [0, 563]>, fillcolor="#399de5"] ;
547 -> 569 ;
570 [label=<age &le; 39.5<br/>entropy = 0.095<br/>samples = 247<br/>value = [3, 244]>, fillcolor="#3b9ee5"] ;
546 -> 570 ;
571 [label=<age &le; 29.5<br/>entropy = 0.047<br/>samples = 193<br/>value = [1, 192]>, fillcolor="#3a9ee5"] ;
570 -> 571 ;
572 [label=<physical_score &le; 43.05<br/>entropy = 0.156<br/>samples = 44<br/>value = [1, 43]>, fillcolor="#3e9fe6"] ;
571 -> 572 ;
573 [label=<physical_score &le; 42.9<br/>entropy = 0.503<br/>samples = 9<br/>value = [1, 8]>, fillcolor="#52a9e8"] ;
572 -> 573 ;
574 [label=<entropy = 0.0<br/>samples = 5<br/>value = [0, 5]>, fillcolor="#399de5"] ;
573 -> 574 ;
575 [label=<age &le; 28.5<br/>entropy = 0.811<br/>samples = 4<br/>value = [1, 3]>, fillcolor="#7bbeee"] ;
573 -> 575 ;
576 [label=<entropy = 0.0<br/>samples = 2<br/>value = [0, 2]>, fillcolor="#399de5"] ;
575 -> 576 ;
577 [label=<entropy = 1.0<br/>samples = 2<br/>value = [1, 1]>, fillcolor="#ffffff"] ;
575 -> 577 ;
578 [label=<entropy = 0.0<br/>samples = 35<br/>value = [0, 35]>, fillcolor="#399de5"] ;
572 -> 578 ;
579 [label=<entropy = 0.0<br/>samples = 149<br/>value = [0, 149]>, fillcolor="#399de5"] ;
571 -> 579 ;
580 [label=<physical_score &le; 42.25<br/>entropy = 0.229<br/>samples = 54<br/>value = [2, 52]>, fillcolor="#41a1e6"] ;
570 -> 580 ;
581 [label=<age &le; 40.5<br/>entropy = 0.722<br/>samples = 5<br/>value = [1, 4]>, fillcolor="#6ab6ec"] ;
580 -> 581 ;
582 [label=<entropy = 0.0<br/>samples = 1<br/>value = [1, 0]>, fillcolor="#e58139"] ;
581 -> 582 ;
583 [label=<entropy = 0.0<br/>samples = 4<br/>value = [0, 4]>, fillcolor="#399de5"] ;
581 -> 583 ;
584 [label=<physical_score &le; 44.05<br/>entropy = 0.144<br/>samples = 49<br/>value = [1, 48]>, fillcolor="#3d9fe6"] ;
580 -> 584 ;
585 [label=<entropy = 0.0<br/>samples = 37<br/>value = [0, 37]>, fillcolor="#399de5"] ;
584 -> 585 ;
586 [label=<physical_score &le; 44.3<br/>entropy = 0.414<br/>samples = 12<br/>value = [1, 11]>, fillcolor="#4ba6e7"] ;
584 -> 586 ;
587 [label=<age &le; 41.5<br/>entropy = 0.918<br/>samples = 3<br/>value = [1, 2]>, fillcolor="#9ccef2"] ;
586 -> 587 ;
588 [label=<entropy = 0.0<br/>samples = 2<br/>value = [0, 2]>, fillcolor="#399de5"] ;
587 -> 588 ;
589 [label=<entropy = 0.0<br/>samples = 1<br/>value = [1, 0]>, fillcolor="#e58139"] ;
587 -> 589 ;
590 [label=<entropy = 0.0<br/>samples = 9<br/>value = [0, 9]>, fillcolor="#399de5"] ;
586 -> 590 ;
591 [label=<physical_score &le; 42.95<br/>entropy = 0.291<br/>samples = 646<br/>value = [33, 613]>, fillcolor="#44a2e6"] ;
541 -> 591 ;
592 [label=<physical_score &le; 40.65<br/>entropy = 0.272<br/>samples = 642<br/>value = [30, 612]>, fillcolor="#43a2e6"] ;
591 -> 592 ;
593 [label=<physical_score &le; 40.45<br/>entropy = 0.29<br/>samples = 590<br/>value = [30, 560]>, fillcolor="#44a2e6"] ;
592 -> 593 ;
594 [label=<physical_score &le; 39.75<br/>entropy = 0.273<br/>samples = 577<br/>value = [27, 550]>, fillcolor="#43a2e6"] ;
593 -> 594 ;
595 [label=<physical_score &le; 34.75<br/>entropy = 0.288<br/>samples = 537<br/>value = [27, 510]>, fillcolor="#43a2e6"] ;
594 -> 595 ;
596 [label=<entropy = 0.0<br/>samples = 31<br/>value = [0, 31]>, fillcolor="#399de5"] ;
595 -> 596 ;
597 [label=<physical_score &le; 35.25<br/>entropy = 0.301<br/>samples = 506<br/>value = [27, 479]>, fillcolor="#44a3e6"] ;
595 -> 597 ;
598 [label=<age &le; 46.5<br/>entropy = 0.639<br/>samples = 37<br/>value = [6, 31]>, fillcolor="#5fb0ea"] ;
597 -> 598 ;
599 [label=<entropy = 0.0<br/>samples = 4<br/>value = [0, 4]>, fillcolor="#399de5"] ;
598 -> 599 ;
600 [label=<age &le; 48.5<br/>entropy = 0.684<br/>samples = 33<br/>value = [6, 27]>, fillcolor="#65b3eb"] ;
598 -> 600 ;
601 [label=<age &le; 47.5<br/>entropy = 0.837<br/>samples = 15<br/>value = [4, 11]>, fillcolor="#81c1ee"] ;
600 -> 601 ;
602 [label=<physical_score &le; 34.9<br/>entropy = 0.544<br/>samples = 8<br/>value = [1, 7]>, fillcolor="#55abe9"] ;
601 -> 602 ;
603 [label=<entropy = 1.0<br/>samples = 2<br/>value = [1, 1]>, fillcolor="#ffffff"] ;
602 -> 603 ;
604 [label=<entropy = 0.0<br/>samples = 6<br/>value = [0, 6]>, fillcolor="#399de5"] ;
602 -> 604 ;
605 [label=<physical_score &le; 34.85<br/>entropy = 0.985<br/>samples = 7<br/>value = [3, 4]>, fillcolor="#cee6f8"] ;
601 -> 605 ;
606 [label=<entropy = 0.0<br/>samples = 3<br/>value = [0, 3]>, fillcolor="#399de5"] ;
605 -> 606 ;
607 [label=<physical_score &le; 35.0<br/>entropy = 0.811<br/>samples = 4<br/>value = [3, 1]>, fillcolor="#eeab7b"] ;
605 -> 607 ;
608 [label=<entropy = 0.0<br/>samples = 1<br/>value = [1, 0]>, fillcolor="#e58139"] ;
607 -> 608 ;
609 [label=<entropy = 0.918<br/>samples = 3<br/>value = [2, 1]>, fillcolor="#f2c09c"] ;
607 -> 609 ;
610 [label=<physical_score &le; 35.15<br/>entropy = 0.503<br/>samples = 18<br/>value = [2, 16]>, fillcolor="#52a9e8"] ;
600 -> 610 ;
611 [label=<entropy = 0.0<br/>samples = 14<br/>value = [0, 14]>, fillcolor="#399de5"] ;
610 -> 611 ;
612 [label=<age &le; 49.5<br/>entropy = 1.0<br/>samples = 4<br/>value = [2, 2]>, fillcolor="#ffffff"] ;
610 -> 612 ;
613 [label=<entropy = 1.0<br/>samples = 2<br/>value = [1, 1]>, fillcolor="#ffffff"] ;
612 -> 613 ;
614 [label=<entropy = 1.0<br/>samples = 2<br/>value = [1, 1]>, fillcolor="#ffffff"] ;
612 -> 614 ;
615 [label=<physical_score &le; 35.85<br/>entropy = 0.264<br/>samples = 469<br/>value = [21, 448]>, fillcolor="#42a2e6"] ;
597 -> 615 ;
616 [label=<entropy = 0.0<br/>samples = 53<br/>value = [0, 53]>, fillcolor="#399de5"] ;
615 -> 616 ;
617 [label=<physical_score &le; 36.95<br/>entropy = 0.288<br/>samples = 416<br/>value = [21, 395]>, fillcolor="#44a2e6"] ;
615 -> 617 ;
618 [label=<age &le; 45.5<br/>entropy = 0.409<br/>samples = 110<br/>value = [9, 101]>, fillcolor="#4ba6e7"] ;
617 -> 618 ;
619 [label=<entropy = 0.0<br/>samples = 20<br/>value = [0, 20]>, fillcolor="#399de5"] ;
618 -> 619 ;
620 [label=<physical_score &le; 36.85<br/>entropy = 0.469<br/>samples = 90<br/>value = [9, 81]>, fillcolor="#4fa8e8"] ;
618 -> 620 ;
621 [label=<age &le; 47.5<br/>entropy = 0.421<br/>samples = 82<br/>value = [7, 75]>, fillcolor="#4ba6e7"] ;
620 -> 621 ;
622 [label=<physical_score &le; 36.75<br/>entropy = 0.552<br/>samples = 39<br/>value = [5, 34]>, fillcolor="#56abe9"] ;
621 -> 622 ;
623 [label=<physical_score &le; 36.65<br/>entropy = 0.592<br/>samples = 35<br/>value = [5, 30]>, fillcolor="#5aade9"] ;
622 -> 623 ;
624 [label=<physical_score &le; 36.45<br/>entropy = 0.459<br/>samples = 31<br/>value = [3, 28]>, fillcolor="#4ea8e8"] ;
623 -> 624 ;
625 [label=<physical_score &le; 35.95<br/>entropy = 0.559<br/>samples = 23<br/>value = [3, 20]>, fillcolor="#57ace9"] ;
624 -> 625 ;
626 [label=<entropy = 0.0<br/>samples = 3<br/>value = [0, 3]>, fillcolor="#399de5"] ;
625 -> 626 ;
627 [label=<physical_score &le; 36.05<br/>entropy = 0.61<br/>samples = 20<br/>value = [3, 17]>, fillcolor="#5caeea"] ;
625 -> 627 ;
628 [label=<age &le; 46.5<br/>entropy = 0.918<br/>samples = 3<br/>value = [1, 2]>, fillcolor="#9ccef2"] ;
627 -> 628 ;
629 [label=<entropy = 0.0<br/>samples = 1<br/>value = [0, 1]>, fillcolor="#399de5"] ;
628 -> 629 ;
630 [label=<entropy = 1.0<br/>samples = 2<br/>value = [1, 1]>, fillcolor="#ffffff"] ;
628 -> 630 ;
631 [label=<physical_score &le; 36.15<br/>entropy = 0.523<br/>samples = 17<br/>value = [2, 15]>, fillcolor="#53aae8"] ;
627 -> 631 ;
632 [label=<entropy = 0.0<br/>samples = 3<br/>value = [0, 3]>, fillcolor="#399de5"] ;
631 -> 632 ;
633 [label=<age &le; 46.5<br/>entropy = 0.592<br/>samples = 14<br/>value = [2, 12]>, fillcolor="#5aade9"] ;
631 -> 633 ;
634 [label=<physical_score &le; 36.35<br/>entropy = 0.811<br/>samples = 4<br/>value = [1, 3]>, fillcolor="#7bbeee"] ;
633 -> 634 ;
635 [label=<entropy = 0.0<br/>samples = 3<br/>value = [0, 3]>, fillcolor="#399de5"] ;
634 -> 635 ;
636 [label=<entropy = 0.0<br/>samples = 1<br/>value = [1, 0]>, fillcolor="#e58139"] ;
634 -> 636 ;
637 [label=<physical_score &le; 36.25<br/>entropy = 0.469<br/>samples = 10<br/>value = [1, 9]>, fillcolor="#4fa8e8"] ;
633 -> 637 ;
638 [label=<entropy = 0.722<br/>samples = 5<br/>value = [1, 4]>, fillcolor="#6ab6ec"] ;
637 -> 638 ;
639 [label=<entropy = 0.0<br/>samples = 5<br/>value = [0, 5]>, fillcolor="#399de5"] ;
637 -> 639 ;
640 [label=<entropy = 0.0<br/>samples = 8<br/>value = [0, 8]>, fillcolor="#399de5"] ;
624 -> 640 ;
641 [label=<age &le; 46.5<br/>entropy = 1.0<br/>samples = 4<br/>value = [2, 2]>, fillcolor="#ffffff"] ;
623 -> 641 ;
642 [label=<entropy = 1.0<br/>samples = 2<br/>value = [1, 1]>, fillcolor="#ffffff"] ;
641 -> 642 ;
643 [label=<entropy = 1.0<br/>samples = 2<br/>value = [1, 1]>, fillcolor="#ffffff"] ;
641 -> 643 ;
644 [label=<entropy = 0.0<br/>samples = 4<br/>value = [0, 4]>, fillcolor="#399de5"] ;
622 -> 644 ;
645 [label=<physical_score &le; 35.95<br/>entropy = 0.271<br/>samples = 43<br/>value = [2, 41]>, fillcolor="#43a2e6"] ;
621 -> 645 ;
646 [label=<age &le; 49.5<br/>entropy = 0.811<br/>samples = 4<br/>value = [1, 3]>, fillcolor="#7bbeee"] ;
645 -> 646 ;
647 [label=<entropy = 0.0<br/>samples = 2<br/>value = [0, 2]>, fillcolor="#399de5"] ;
646 -> 647 ;
648 [label=<entropy = 1.0<br/>samples = 2<br/>value = [1, 1]>, fillcolor="#ffffff"] ;
646 -> 648 ;
649 [label=<age &le; 48.5<br/>entropy = 0.172<br/>samples = 39<br/>value = [1, 38]>, fillcolor="#3ea0e6"] ;
645 -> 649 ;
650 [label=<physical_score &le; 36.45<br/>entropy = 0.337<br/>samples = 16<br/>value = [1, 15]>, fillcolor="#46a4e7"] ;
649 -> 650 ;
651 [label=<entropy = 0.0<br/>samples = 9<br/>value = [0, 9]>, fillcolor="#399de5"] ;
650 -> 651 ;
652 [label=<physical_score &le; 36.6<br/>entropy = 0.592<br/>samples = 7<br/>value = [1, 6]>, fillcolor="#5aade9"] ;
650 -> 652 ;
653 [label=<entropy = 0.0<br/>samples = 1<br/>value = [1, 0]>, fillcolor="#e58139"] ;
652 -> 653 ;
654 [label=<entropy = 0.0<br/>samples = 6<br/>value = [0, 6]>, fillcolor="#399de5"] ;
652 -> 654 ;
655 [label=<entropy = 0.0<br/>samples = 23<br/>value = [0, 23]>, fillcolor="#399de5"] ;
649 -> 655 ;
656 [label=<age &le; 49.5<br/>entropy = 0.811<br/>samples = 8<br/>value = [2, 6]>, fillcolor="#7bbeee"] ;
620 -> 656 ;
657 [label=<age &le; 48.5<br/>entropy = 0.918<br/>samples = 6<br/>value = [2, 4]>, fillcolor="#9ccef2"] ;
656 -> 657 ;
658 [label=<age &le; 47.0<br/>entropy = 0.811<br/>samples = 4<br/>value = [1, 3]>, fillcolor="#7bbeee"] ;
657 -> 658 ;
659 [label=<entropy = 0.918<br/>samples = 3<br/>value = [1, 2]>, fillcolor="#9ccef2"] ;
658 -> 659 ;
660 [label=<entropy = 0.0<br/>samples = 1<br/>value = [0, 1]>, fillcolor="#399de5"] ;
658 -> 660 ;
661 [label=<entropy = 1.0<br/>samples = 2<br/>value = [1, 1]>, fillcolor="#ffffff"] ;
657 -> 661 ;
662 [label=<entropy = 0.0<br/>samples = 2<br/>value = [0, 2]>, fillcolor="#399de5"] ;
656 -> 662 ;
663 [label=<physical_score &le; 39.65<br/>entropy = 0.239<br/>samples = 306<br/>value = [12, 294]>, fillcolor="#41a1e6"] ;
617 -> 663 ;
664 [label=<physical_score &le; 37.25<br/>entropy = 0.214<br/>samples = 295<br/>value = [10, 285]>, fillcolor="#40a0e6"] ;
663 -> 664 ;
665 [label=<entropy = 0.0<br/>samples = 36<br/>value = [0, 36]>, fillcolor="#399de5"] ;
664 -> 665 ;
666 [label=<physical_score &le; 38.85<br/>entropy = 0.236<br/>samples = 259<br/>value = [10, 249]>, fillcolor="#41a1e6"] ;
664 -> 666 ;
667 [label=<age &le; 46.5<br/>entropy = 0.274<br/>samples = 191<br/>value = [9, 182]>, fillcolor="#43a2e6"] ;
666 -> 667 ;
668 [label=<physical_score &le; 37.35<br/>entropy = 0.367<br/>samples = 57<br/>value = [4, 53]>, fillcolor="#48a4e7"] ;
667 -> 668 ;
669 [label=<age &le; 45.5<br/>entropy = 0.918<br/>samples = 3<br/>value = [1, 2]>, fillcolor="#9ccef2"] ;
668 -> 669 ;
670 [label=<entropy = 0.0<br/>samples = 1<br/>value = [1, 0]>, fillcolor="#e58139"] ;
669 -> 670 ;
671 [label=<entropy = 0.0<br/>samples = 2<br/>value = [0, 2]>, fillcolor="#399de5"] ;
669 -> 671 ;
672 [label=<physical_score &le; 38.75<br/>entropy = 0.31<br/>samples = 54<br/>value = [3, 51]>, fillcolor="#45a3e7"] ;
668 -> 672 ;
673 [label=<physical_score &le; 38.25<br/>entropy = 0.246<br/>samples = 49<br/>value = [2, 47]>, fillcolor="#41a1e6"] ;
672 -> 673 ;
674 [label=<physical_score &le; 38.15<br/>entropy = 0.323<br/>samples = 34<br/>value = [2, 32]>, fillcolor="#45a3e7"] ;
673 -> 674 ;
675 [label=<physical_score &le; 37.65<br/>entropy = 0.211<br/>samples = 30<br/>value = [1, 29]>, fillcolor="#40a0e6"] ;
674 -> 675 ;
676 [label=<age &le; 45.5<br/>entropy = 0.414<br/>samples = 12<br/>value = [1, 11]>, fillcolor="#4ba6e7"] ;
675 -> 676 ;
677 [label=<entropy = 0.0<br/>samples = 4<br/>value = [0, 4]>, fillcolor="#399de5"] ;
676 -> 677 ;
678 [label=<physical_score &le; 37.5<br/>entropy = 0.544<br/>samples = 8<br/>value = [1, 7]>, fillcolor="#55abe9"] ;
676 -> 678 ;
679 [label=<entropy = 0.0<br/>samples = 2<br/>value = [0, 2]>, fillcolor="#399de5"] ;
678 -> 679 ;
680 [label=<entropy = 0.65<br/>samples = 6<br/>value = [1, 5]>, fillcolor="#61b1ea"] ;
678 -> 680 ;
681 [label=<entropy = 0.0<br/>samples = 18<br/>value = [0, 18]>, fillcolor="#399de5"] ;
675 -> 681 ;
682 [label=<age &le; 45.5<br/>entropy = 0.811<br/>samples = 4<br/>value = [1, 3]>, fillcolor="#7bbeee"] ;
674 -> 682 ;
683 [label=<entropy = 0.918<br/>samples = 3<br/>value = [1, 2]>, fillcolor="#9ccef2"] ;
682 -> 683 ;
684 [label=<entropy = 0.0<br/>samples = 1<br/>value = [0, 1]>, fillcolor="#399de5"] ;
682 -> 684 ;
685 [label=<entropy = 0.0<br/>samples = 15<br/>value = [0, 15]>, fillcolor="#399de5"] ;
673 -> 685 ;
686 [label=<age &le; 45.5<br/>entropy = 0.722<br/>samples = 5<br/>value = [1, 4]>, fillcolor="#6ab6ec"] ;
672 -> 686 ;
687 [label=<entropy = 0.0<br/>samples = 3<br/>value = [0, 3]>, fillcolor="#399de5"] ;
686 -> 687 ;
688 [label=<entropy = 1.0<br/>samples = 2<br/>value = [1, 1]>, fillcolor="#ffffff"] ;
686 -> 688 ;
689 [label=<physical_score &le; 37.65<br/>entropy = 0.23<br/>samples = 134<br/>value = [5, 129]>, fillcolor="#41a1e6"] ;
667 -> 689 ;
690 [label=<entropy = 0.0<br/>samples = 35<br/>value = [0, 35]>, fillcolor="#399de5"] ;
689 -> 690 ;
691 [label=<physical_score &le; 37.95<br/>entropy = 0.289<br/>samples = 99<br/>value = [5, 94]>, fillcolor="#44a2e6"] ;
689 -> 691 ;
692 [label=<age &le; 49.5<br/>entropy = 0.449<br/>samples = 32<br/>value = [3, 29]>, fillcolor="#4da7e8"] ;
691 -> 692 ;
693 [label=<age &le; 48.5<br/>entropy = 0.371<br/>samples = 28<br/>value = [2, 26]>, fillcolor="#48a5e7"] ;
692 -> 693 ;
694 [label=<physical_score &le; 37.75<br/>entropy = 0.523<br/>samples = 17<br/>value = [2, 15]>, fillcolor="#53aae8"] ;
693 -> 694 ;
695 [label=<entropy = 0.0<br/>samples = 4<br/>value = [0, 4]>, fillcolor="#399de5"] ;
694 -> 695 ;
696 [label=<age &le; 47.5<br/>entropy = 0.619<br/>samples = 13<br/>value = [2, 11]>, fillcolor="#5dafea"] ;
694 -> 696 ;
697 [label=<physical_score &le; 37.85<br/>entropy = 0.544<br/>samples = 8<br/>value = [1, 7]>, fillcolor="#55abe9"] ;
696 -> 697 ;
698 [label=<entropy = 0.811<br/>samples = 4<br/>value = [1, 3]>, fillcolor="#7bbeee"] ;
697 -> 698 ;
699 [label=<entropy = 0.0<br/>samples = 4<br/>value = [0, 4]>, fillcolor="#399de5"] ;
697 -> 699 ;
700 [label=<physical_score &le; 37.85<br/>entropy = 0.722<br/>samples = 5<br/>value = [1, 4]>, fillcolor="#6ab6ec"] ;
696 -> 700 ;
701 [label=<entropy = 0.0<br/>samples = 3<br/>value = [0, 3]>, fillcolor="#399de5"] ;
700 -> 701 ;
702 [label=<entropy = 1.0<br/>samples = 2<br/>value = [1, 1]>, fillcolor="#ffffff"] ;
700 -> 702 ;
703 [label=<entropy = 0.0<br/>samples = 11<br/>value = [0, 11]>, fillcolor="#399de5"] ;
693 -> 703 ;
704 [label=<physical_score &le; 37.75<br/>entropy = 0.811<br/>samples = 4<br/>value = [1, 3]>, fillcolor="#7bbeee"] ;
692 -> 704 ;
705 [label=<entropy = 0.0<br/>samples = 1<br/>value = [1, 0]>, fillcolor="#e58139"] ;
704 -> 705 ;
706 [label=<entropy = 0.0<br/>samples = 3<br/>value = [0, 3]>, fillcolor="#399de5"] ;
704 -> 706 ;
707 [label=<age &le; 48.5<br/>entropy = 0.194<br/>samples = 67<br/>value = [2, 65]>, fillcolor="#3fa0e6"] ;
691 -> 707 ;
708 [label=<entropy = 0.0<br/>samples = 41<br/>value = [0, 41]>, fillcolor="#399de5"] ;
707 -> 708 ;
709 [label=<physical_score &le; 38.35<br/>entropy = 0.391<br/>samples = 26<br/>value = [2, 24]>, fillcolor="#49a5e7"] ;
707 -> 709 ;
710 [label=<entropy = 0.0<br/>samples = 16<br/>value = [0, 16]>, fillcolor="#399de5"] ;
709 -> 710 ;
711 [label=<physical_score &le; 38.55<br/>entropy = 0.722<br/>samples = 10<br/>value = [2, 8]>, fillcolor="#6ab6ec"] ;
709 -> 711 ;
712 [label=<physical_score &le; 38.45<br/>entropy = 0.918<br/>samples = 6<br/>value = [2, 4]>, fillcolor="#9ccef2"] ;
711 -> 712 ;
713 [label=<entropy = 1.0<br/>samples = 2<br/>value = [1, 1]>, fillcolor="#ffffff"] ;
712 -> 713 ;
714 [label=<age &le; 49.5<br/>entropy = 0.811<br/>samples = 4<br/>value = [1, 3]>, fillcolor="#7bbeee"] ;
712 -> 714 ;
715 [label=<entropy = 0.0<br/>samples = 1<br/>value = [0, 1]>, fillcolor="#399de5"] ;
714 -> 715 ;
716 [label=<entropy = 0.918<br/>samples = 3<br/>value = [1, 2]>, fillcolor="#9ccef2"] ;
714 -> 716 ;
717 [label=<entropy = 0.0<br/>samples = 4<br/>value = [0, 4]>, fillcolor="#399de5"] ;
711 -> 717 ;
718 [label=<physical_score &le; 39.55<br/>entropy = 0.111<br/>samples = 68<br/>value = [1, 67]>, fillcolor="#3c9ee5"] ;
666 -> 718 ;
719 [label=<entropy = 0.0<br/>samples = 54<br/>value = [0, 54]>, fillcolor="#399de5"] ;
718 -> 719 ;
720 [label=<age &le; 48.5<br/>entropy = 0.371<br/>samples = 14<br/>value = [1, 13]>, fillcolor="#48a5e7"] ;
718 -> 720 ;
721 [label=<entropy = 0.0<br/>samples = 9<br/>value = [0, 9]>, fillcolor="#399de5"] ;
720 -> 721 ;
722 [label=<age &le; 49.5<br/>entropy = 0.722<br/>samples = 5<br/>value = [1, 4]>, fillcolor="#6ab6ec"] ;
720 -> 722 ;
723 [label=<entropy = 0.918<br/>samples = 3<br/>value = [1, 2]>, fillcolor="#9ccef2"] ;
722 -> 723 ;
724 [label=<entropy = 0.0<br/>samples = 2<br/>value = [0, 2]>, fillcolor="#399de5"] ;
722 -> 724 ;
725 [label=<age &le; 46.5<br/>entropy = 0.684<br/>samples = 11<br/>value = [2, 9]>, fillcolor="#65b3eb"] ;
663 -> 725 ;
726 [label=<age &le; 45.5<br/>entropy = 0.918<br/>samples = 6<br/>value = [2, 4]>, fillcolor="#9ccef2"] ;
725 -> 726 ;
727 [label=<entropy = 0.918<br/>samples = 3<br/>value = [1, 2]>, fillcolor="#9ccef2"] ;
726 -> 727 ;
728 [label=<entropy = 0.918<br/>samples = 3<br/>value = [1, 2]>, fillcolor="#9ccef2"] ;
726 -> 728 ;
729 [label=<entropy = 0.0<br/>samples = 5<br/>value = [0, 5]>, fillcolor="#399de5"] ;
725 -> 729 ;
730 [label=<entropy = 0.0<br/>samples = 40<br/>value = [0, 40]>, fillcolor="#399de5"] ;
594 -> 730 ;
731 [label=<age &le; 49.5<br/>entropy = 0.779<br/>samples = 13<br/>value = [3, 10]>, fillcolor="#74baed"] ;
593 -> 731 ;
732 [label=<age &le; 46.5<br/>entropy = 0.439<br/>samples = 11<br/>value = [1, 10]>, fillcolor="#4da7e8"] ;
731 -> 732 ;
733 [label=<entropy = 0.0<br/>samples = 5<br/>value = [0, 5]>, fillcolor="#399de5"] ;
732 -> 733 ;
734 [label=<age &le; 47.5<br/>entropy = 0.65<br/>samples = 6<br/>value = [1, 5]>, fillcolor="#61b1ea"] ;
732 -> 734 ;
735 [label=<entropy = 0.918<br/>samples = 3<br/>value = [1, 2]>, fillcolor="#9ccef2"] ;
734 -> 735 ;
736 [label=<entropy = 0.0<br/>samples = 3<br/>value = [0, 3]>, fillcolor="#399de5"] ;
734 -> 736 ;
737 [label=<entropy = 0.0<br/>samples = 2<br/>value = [2, 0]>, fillcolor="#e58139"] ;
731 -> 737 ;
738 [label=<entropy = 0.0<br/>samples = 52<br/>value = [0, 52]>, fillcolor="#399de5"] ;
592 -> 738 ;
739 [label=<age &le; 45.5<br/>entropy = 0.811<br/>samples = 4<br/>value = [3, 1]>, fillcolor="#eeab7b"] ;
591 -> 739 ;
740 [label=<entropy = 0.0<br/>samples = 1<br/>value = [0, 1]>, fillcolor="#399de5"] ;
739 -> 740 ;
741 [label=<entropy = 0.0<br/>samples = 3<br/>value = [3, 0]>, fillcolor="#e58139"] ;
739 -> 741 ;
742 [label=<age &le; 60.5<br/>entropy = 0.671<br/>samples = 421<br/>value = [74, 347]>, fillcolor="#63b2eb"] ;
540 -> 742 ;
743 [label=<physical_score &le; 43.15<br/>entropy = 0.572<br/>samples = 391<br/>value = [53, 338]>, fillcolor="#58ace9"] ;
742 -> 743 ;
744 [label=<age &le; 53.5<br/>entropy = 0.554<br/>samples = 388<br/>value = [50, 338]>, fillcolor="#56abe9"] ;
743 -> 744 ;
745 [label=<physical_score &le; 35.55<br/>entropy = 0.415<br/>samples = 203<br/>value = [17, 186]>, fillcolor="#4ba6e7"] ;
744 -> 745 ;
746 [label=<physical_score &le; 35.35<br/>entropy = 0.607<br/>samples = 47<br/>value = [7, 40]>, fillcolor="#5caeea"] ;
745 -> 746 ;
747 [label=<physical_score &le; 34.55<br/>entropy = 0.485<br/>samples = 38<br/>value = [4, 34]>, fillcolor="#50a9e8"] ;
746 -> 747 ;
748 [label=<entropy = 1.0<br/>samples = 2<br/>value = [1, 1]>, fillcolor="#ffffff"] ;
747 -> 748 ;
749 [label=<physical_score &le; 34.85<br/>entropy = 0.414<br/>samples = 36<br/>value = [3, 33]>, fillcolor="#4ba6e7"] ;
747 -> 749 ;
750 [label=<entropy = 0.0<br/>samples = 11<br/>value = [0, 11]>, fillcolor="#399de5"] ;
749 -> 750 ;
751 [label=<physical_score &le; 35.05<br/>entropy = 0.529<br/>samples = 25<br/>value = [3, 22]>, fillcolor="#54aae9"] ;
749 -> 751 ;
752 [label=<age &le; 52.5<br/>entropy = 0.811<br/>samples = 8<br/>value = [2, 6]>, fillcolor="#7bbeee"] ;
751 -> 752 ;
753 [label=<physical_score &le; 34.95<br/>entropy = 0.863<br/>samples = 7<br/>value = [2, 5]>, fillcolor="#88c4ef"] ;
752 -> 753 ;
754 [label=<age &le; 51.5<br/>entropy = 0.722<br/>samples = 5<br/>value = [1, 4]>, fillcolor="#6ab6ec"] ;
753 -> 754 ;
755 [label=<entropy = 0.0<br/>samples = 2<br/>value = [0, 2]>, fillcolor="#399de5"] ;
754 -> 755 ;
756 [label=<entropy = 0.918<br/>samples = 3<br/>value = [1, 2]>, fillcolor="#9ccef2"] ;
754 -> 756 ;
757 [label=<age &le; 51.5<br/>entropy = 1.0<br/>samples = 2<br/>value = [1, 1]>, fillcolor="#ffffff"] ;
753 -> 757 ;
758 [label=<entropy = 0.0<br/>samples = 1<br/>value = [1, 0]>, fillcolor="#e58139"] ;
757 -> 758 ;
759 [label=<entropy = 0.0<br/>samples = 1<br/>value = [0, 1]>, fillcolor="#399de5"] ;
757 -> 759 ;
760 [label=<entropy = 0.0<br/>samples = 1<br/>value = [0, 1]>, fillcolor="#399de5"] ;
752 -> 760 ;
761 [label=<physical_score &le; 35.15<br/>entropy = 0.323<br/>samples = 17<br/>value = [1, 16]>, fillcolor="#45a3e7"] ;
751 -> 761 ;
762 [label=<entropy = 0.0<br/>samples = 6<br/>value = [0, 6]>, fillcolor="#399de5"] ;
761 -> 762 ;
763 [label=<physical_score &le; 35.25<br/>entropy = 0.439<br/>samples = 11<br/>value = [1, 10]>, fillcolor="#4da7e8"] ;
761 -> 763 ;
764 [label=<age &le; 51.5<br/>entropy = 0.65<br/>samples = 6<br/>value = [1, 5]>, fillcolor="#61b1ea"] ;
763 -> 764 ;
765 [label=<entropy = 0.0<br/>samples = 2<br/>value = [0, 2]>, fillcolor="#399de5"] ;
764 -> 765 ;
766 [label=<age &le; 52.5<br/>entropy = 0.811<br/>samples = 4<br/>value = [1, 3]>, fillcolor="#7bbeee"] ;
764 -> 766 ;
767 [label=<entropy = 0.918<br/>samples = 3<br/>value = [1, 2]>, fillcolor="#9ccef2"] ;
766 -> 767 ;
768 [label=<entropy = 0.0<br/>samples = 1<br/>value = [0, 1]>, fillcolor="#399de5"] ;
766 -> 768 ;
769 [label=<entropy = 0.0<br/>samples = 5<br/>value = [0, 5]>, fillcolor="#399de5"] ;
763 -> 769 ;
770 [label=<age &le; 52.5<br/>entropy = 0.918<br/>samples = 9<br/>value = [3, 6]>, fillcolor="#9ccef2"] ;
746 -> 770 ;
771 [label=<physical_score &le; 35.45<br/>entropy = 1.0<br/>samples = 6<br/>value = [3, 3]>, fillcolor="#ffffff"] ;
770 -> 771 ;
772 [label=<age &le; 51.5<br/>entropy = 1.0<br/>samples = 2<br/>value = [1, 1]>, fillcolor="#ffffff"] ;
771 -> 772 ;
773 [label=<entropy = 0.0<br/>samples = 1<br/>value = [0, 1]>, fillcolor="#399de5"] ;
772 -> 773 ;
774 [label=<entropy = 0.0<br/>samples = 1<br/>value = [1, 0]>, fillcolor="#e58139"] ;
772 -> 774 ;
775 [label=<age &le; 51.5<br/>entropy = 1.0<br/>samples = 4<br/>value = [2, 2]>, fillcolor="#ffffff"] ;
771 -> 775 ;
776 [label=<entropy = 0.0<br/>samples = 1<br/>value = [1, 0]>, fillcolor="#e58139"] ;
775 -> 776 ;
777 [label=<entropy = 0.918<br/>samples = 3<br/>value = [1, 2]>, fillcolor="#9ccef2"] ;
775 -> 777 ;
778 [label=<entropy = 0.0<br/>samples = 3<br/>value = [0, 3]>, fillcolor="#399de5"] ;
770 -> 778 ;
779 [label=<physical_score &le; 39.3<br/>entropy = 0.344<br/>samples = 156<br/>value = [10, 146]>, fillcolor="#47a4e7"] ;
745 -> 779 ;
780 [label=<physical_score &le; 37.65<br/>entropy = 0.288<br/>samples = 139<br/>value = [7, 132]>, fillcolor="#44a2e6"] ;
779 -> 780 ;
781 [label=<physical_score &le; 36.25<br/>entropy = 0.371<br/>samples = 98<br/>value = [7, 91]>, fillcolor="#48a5e7"] ;
780 -> 781 ;
782 [label=<age &le; 51.5<br/>entropy = 0.196<br/>samples = 33<br/>value = [1, 32]>, fillcolor="#3fa0e6"] ;
781 -> 782 ;
783 [label=<physical_score &le; 35.95<br/>entropy = 0.439<br/>samples = 11<br/>value = [1, 10]>, fillcolor="#4da7e8"] ;
782 -> 783 ;
784 [label=<physical_score &le; 35.8<br/>entropy = 0.722<br/>samples = 5<br/>value = [1, 4]>, fillcolor="#6ab6ec"] ;
783 -> 784 ;
785 [label=<entropy = 0.0<br/>samples = 1<br/>value = [0, 1]>, fillcolor="#399de5"] ;
784 -> 785 ;
786 [label=<entropy = 0.811<br/>samples = 4<br/>value = [1, 3]>, fillcolor="#7bbeee"] ;
784 -> 786 ;
787 [label=<entropy = 0.0<br/>samples = 6<br/>value = [0, 6]>, fillcolor="#399de5"] ;
783 -> 787 ;
788 [label=<entropy = 0.0<br/>samples = 22<br/>value = [0, 22]>, fillcolor="#399de5"] ;
782 -> 788 ;
789 [label=<physical_score &le; 36.55<br/>entropy = 0.444<br/>samples = 65<br/>value = [6, 59]>, fillcolor="#4da7e8"] ;
781 -> 789 ;
790 [label=<age &le; 51.5<br/>entropy = 0.672<br/>samples = 17<br/>value = [3, 14]>, fillcolor="#63b2eb"] ;
789 -> 790 ;
791 [label=<physical_score &le; 36.45<br/>entropy = 0.971<br/>samples = 5<br/>value = [2, 3]>, fillcolor="#bddef6"] ;
790 -> 791 ;
792 [label=<physical_score &le; 36.35<br/>entropy = 0.811<br/>samples = 4<br/>value = [1, 3]>, fillcolor="#7bbeee"] ;
791 -> 792 ;
793 [label=<entropy = 1.0<br/>samples = 2<br/>value = [1, 1]>, fillcolor="#ffffff"] ;
792 -> 793 ;
794 [label=<entropy = 0.0<br/>samples = 2<br/>value = [0, 2]>, fillcolor="#399de5"] ;
792 -> 794 ;
795 [label=<entropy = 0.0<br/>samples = 1<br/>value = [1, 0]>, fillcolor="#e58139"] ;
791 -> 795 ;
796 [label=<physical_score &le; 36.45<br/>entropy = 0.414<br/>samples = 12<br/>value = [1, 11]>, fillcolor="#4ba6e7"] ;
790 -> 796 ;
797 [label=<physical_score &le; 36.35<br/>entropy = 0.592<br/>samples = 7<br/>value = [1, 6]>, fillcolor="#5aade9"] ;
796 -> 797 ;
798 [label=<entropy = 0.0<br/>samples = 3<br/>value = [0, 3]>, fillcolor="#399de5"] ;
797 -> 798 ;
799 [label=<entropy = 0.811<br/>samples = 4<br/>value = [1, 3]>, fillcolor="#7bbeee"] ;
797 -> 799 ;
800 [label=<entropy = 0.0<br/>samples = 5<br/>value = [0, 5]>, fillcolor="#399de5"] ;
796 -> 800 ;
801 [label=<age &le; 51.5<br/>entropy = 0.337<br/>samples = 48<br/>value = [3, 45]>, fillcolor="#46a4e7"] ;
789 -> 801 ;
802 [label=<entropy = 0.0<br/>samples = 13<br/>value = [0, 13]>, fillcolor="#399de5"] ;
801 -> 802 ;
803 [label=<physical_score &le; 37.35<br/>entropy = 0.422<br/>samples = 35<br/>value = [3, 32]>, fillcolor="#4ca6e7"] ;
801 -> 803 ;
804 [label=<physical_score &le; 36.85<br/>entropy = 0.25<br/>samples = 24<br/>value = [1, 23]>, fillcolor="#42a1e6"] ;
803 -> 804 ;
805 [label=<physical_score &le; 36.75<br/>entropy = 0.592<br/>samples = 7<br/>value = [1, 6]>, fillcolor="#5aade9"] ;
804 -> 805 ;
806 [label=<entropy = 0.0<br/>samples = 3<br/>value = [0, 3]>, fillcolor="#399de5"] ;
805 -> 806 ;
807 [label=<entropy = 0.811<br/>samples = 4<br/>value = [1, 3]>, fillcolor="#7bbeee"] ;
805 -> 807 ;
808 [label=<entropy = 0.0<br/>samples = 17<br/>value = [0, 17]>, fillcolor="#399de5"] ;
804 -> 808 ;
809 [label=<age &le; 52.5<br/>entropy = 0.684<br/>samples = 11<br/>value = [2, 9]>, fillcolor="#65b3eb"] ;
803 -> 809 ;
810 [label=<physical_score &le; 37.5<br/>entropy = 0.863<br/>samples = 7<br/>value = [2, 5]>, fillcolor="#88c4ef"] ;
809 -> 810 ;
811 [label=<entropy = 0.918<br/>samples = 3<br/>value = [1, 2]>, fillcolor="#9ccef2"] ;
810 -> 811 ;
812 [label=<entropy = 0.811<br/>samples = 4<br/>value = [1, 3]>, fillcolor="#7bbeee"] ;
810 -> 812 ;
813 [label=<entropy = 0.0<br/>samples = 4<br/>value = [0, 4]>, fillcolor="#399de5"] ;
809 -> 813 ;
814 [label=<entropy = 0.0<br/>samples = 41<br/>value = [0, 41]>, fillcolor="#399de5"] ;
780 -> 814 ;
815 [label=<physical_score &le; 40.15<br/>entropy = 0.672<br/>samples = 17<br/>value = [3, 14]>, fillcolor="#63b2eb"] ;
779 -> 815 ;
816 [label=<physical_score &le; 39.85<br/>entropy = 0.881<br/>samples = 10<br/>value = [3, 7]>, fillcolor="#8ec7f0"] ;
815 -> 816 ;
817 [label=<age &le; 52.5<br/>entropy = 0.65<br/>samples = 6<br/>value = [1, 5]>, fillcolor="#61b1ea"] ;
816 -> 817 ;
818 [label=<entropy = 0.0<br/>samples = 4<br/>value = [0, 4]>, fillcolor="#399de5"] ;
817 -> 818 ;
819 [label=<entropy = 1.0<br/>samples = 2<br/>value = [1, 1]>, fillcolor="#ffffff"] ;
817 -> 819 ;
820 [label=<age &le; 51.5<br/>entropy = 1.0<br/>samples = 4<br/>value = [2, 2]>, fillcolor="#ffffff"] ;
816 -> 820 ;
821 [label=<entropy = 1.0<br/>samples = 2<br/>value = [1, 1]>, fillcolor="#ffffff"] ;
820 -> 821 ;
822 [label=<entropy = 1.0<br/>samples = 2<br/>value = [1, 1]>, fillcolor="#ffffff"] ;
820 -> 822 ;
823 [label=<entropy = 0.0<br/>samples = 7<br/>value = [0, 7]>, fillcolor="#399de5"] ;
815 -> 823 ;
824 [label=<physical_score &le; 38.25<br/>entropy = 0.677<br/>samples = 185<br/>value = [33, 152]>, fillcolor="#64b2eb"] ;
744 -> 824 ;
825 [label=<physical_score &le; 35.45<br/>entropy = 0.61<br/>samples = 160<br/>value = [24, 136]>, fillcolor="#5caeea"] ;
824 -> 825 ;
826 [label=<physical_score &le; 35.35<br/>entropy = 0.722<br/>samples = 55<br/>value = [11, 44]>, fillcolor="#6ab6ec"] ;
825 -> 826 ;
827 [label=<age &le; 55.5<br/>entropy = 0.615<br/>samples = 46<br/>value = [7, 39]>, fillcolor="#5dafea"] ;
826 -> 827 ;
828 [label=<physical_score &le; 35.05<br/>entropy = 0.439<br/>samples = 22<br/>value = [2, 20]>, fillcolor="#4da7e8"] ;
827 -> 828 ;
829 [label=<entropy = 0.0<br/>samples = 16<br/>value = [0, 16]>, fillcolor="#399de5"] ;
828 -> 829 ;
830 [label=<physical_score &le; 35.15<br/>entropy = 0.918<br/>samples = 6<br/>value = [2, 4]>, fillcolor="#9ccef2"] ;
828 -> 830 ;
831 [label=<age &le; 54.5<br/>entropy = 0.811<br/>samples = 4<br/>value = [1, 3]>, fillcolor="#7bbeee"] ;
830 -> 831 ;
832 [label=<entropy = 1.0<br/>samples = 2<br/>value = [1, 1]>, fillcolor="#ffffff"] ;
831 -> 832 ;
833 [label=<entropy = 0.0<br/>samples = 2<br/>value = [0, 2]>, fillcolor="#399de5"] ;
831 -> 833 ;
834 [label=<entropy = 1.0<br/>samples = 2<br/>value = [1, 1]>, fillcolor="#ffffff"] ;
830 -> 834 ;
835 [label=<physical_score &le; 34.75<br/>entropy = 0.738<br/>samples = 24<br/>value = [5, 19]>, fillcolor="#6db7ec"] ;
827 -> 835 ;
836 [label=<age &le; 57.5<br/>entropy = 0.991<br/>samples = 9<br/>value = [4, 5]>, fillcolor="#d7ebfa"] ;
835 -> 836 ;
837 [label=<physical_score &le; 34.55<br/>entropy = 0.918<br/>samples = 6<br/>value = [4, 2]>, fillcolor="#f2c09c"] ;
836 -> 837 ;
838 [label=<entropy = 0.0<br/>samples = 1<br/>value = [0, 1]>, fillcolor="#399de5"] ;
837 -> 838 ;
839 [label=<physical_score &le; 34.65<br/>entropy = 0.722<br/>samples = 5<br/>value = [4, 1]>, fillcolor="#eca06a"] ;
837 -> 839 ;
840 [label=<entropy = 0.0<br/>samples = 2<br/>value = [2, 0]>, fillcolor="#e58139"] ;
839 -> 840 ;
841 [label=<age &le; 56.5<br/>entropy = 0.918<br/>samples = 3<br/>value = [2, 1]>, fillcolor="#f2c09c"] ;
839 -> 841 ;
842 [label=<entropy = 1.0<br/>samples = 2<br/>value = [1, 1]>, fillcolor="#ffffff"] ;
841 -> 842 ;
843 [label=<entropy = 0.0<br/>samples = 1<br/>value = [1, 0]>, fillcolor="#e58139"] ;
841 -> 843 ;
844 [label=<entropy = 0.0<br/>samples = 3<br/>value = [0, 3]>, fillcolor="#399de5"] ;
836 -> 844 ;
845 [label=<age &le; 59.5<br/>entropy = 0.353<br/>samples = 15<br/>value = [1, 14]>, fillcolor="#47a4e7"] ;
835 -> 845 ;
846 [label=<entropy = 0.0<br/>samples = 11<br/>value = [0, 11]>, fillcolor="#399de5"] ;
845 -> 846 ;
847 [label=<physical_score &le; 34.95<br/>entropy = 0.811<br/>samples = 4<br/>value = [1, 3]>, fillcolor="#7bbeee"] ;
845 -> 847 ;
848 [label=<entropy = 0.0<br/>samples = 2<br/>value = [0, 2]>, fillcolor="#399de5"] ;
847 -> 848 ;
849 [label=<entropy = 1.0<br/>samples = 2<br/>value = [1, 1]>, fillcolor="#ffffff"] ;
847 -> 849 ;
850 [label=<age &le; 58.0<br/>entropy = 0.991<br/>samples = 9<br/>value = [4, 5]>, fillcolor="#d7ebfa"] ;
826 -> 850 ;
851 [label=<age &le; 54.5<br/>entropy = 0.985<br/>samples = 7<br/>value = [4, 3]>, fillcolor="#f8e0ce"] ;
850 -> 851 ;
852 [label=<entropy = 1.0<br/>samples = 4<br/>value = [2, 2]>, fillcolor="#ffffff"] ;
851 -> 852 ;
853 [label=<age &le; 56.0<br/>entropy = 0.918<br/>samples = 3<br/>value = [2, 1]>, fillcolor="#f2c09c"] ;
851 -> 853 ;
854 [label=<entropy = 0.0<br/>samples = 1<br/>value = [1, 0]>, fillcolor="#e58139"] ;
853 -> 854 ;
855 [label=<entropy = 1.0<br/>samples = 2<br/>value = [1, 1]>, fillcolor="#ffffff"] ;
853 -> 855 ;
856 [label=<entropy = 0.0<br/>samples = 2<br/>value = [0, 2]>, fillcolor="#399de5"] ;
850 -> 856 ;
857 [label=<physical_score &le; 35.85<br/>entropy = 0.54<br/>samples = 105<br/>value = [13, 92]>, fillcolor="#55abe9"] ;
825 -> 857 ;
858 [label=<entropy = 0.0<br/>samples = 17<br/>value = [0, 17]>, fillcolor="#399de5"] ;
857 -> 858 ;
859 [label=<age &le; 59.5<br/>entropy = 0.604<br/>samples = 88<br/>value = [13, 75]>, fillcolor="#5baeea"] ;
857 -> 859 ;
860 [label=<age &le; 58.5<br/>entropy = 0.56<br/>samples = 84<br/>value = [11, 73]>, fillcolor="#57ace9"] ;
859 -> 860 ;
861 [label=<physical_score &le; 36.75<br/>entropy = 0.582<br/>samples = 79<br/>value = [11, 68]>, fillcolor="#59ade9"] ;
860 -> 861 ;
862 [label=<physical_score &le; 36.35<br/>entropy = 0.485<br/>samples = 38<br/>value = [4, 34]>, fillcolor="#50a9e8"] ;
861 -> 862 ;
863 [label=<physical_score &le; 36.25<br/>entropy = 0.65<br/>samples = 24<br/>value = [4, 20]>, fillcolor="#61b1ea"] ;
862 -> 863 ;
864 [label=<physical_score &le; 35.95<br/>entropy = 0.485<br/>samples = 19<br/>value = [2, 17]>, fillcolor="#50a9e8"] ;
863 -> 864 ;
865 [label=<age &le; 55.0<br/>entropy = 0.811<br/>samples = 4<br/>value = [1, 3]>, fillcolor="#7bbeee"] ;
864 -> 865 ;
866 [label=<entropy = 0.0<br/>samples = 1<br/>value = [0, 1]>, fillcolor="#399de5"] ;
865 -> 866 ;
867 [label=<entropy = 0.918<br/>samples = 3<br/>value = [1, 2]>, fillcolor="#9ccef2"] ;
865 -> 867 ;
868 [label=<age &le; 54.5<br/>entropy = 0.353<br/>samples = 15<br/>value = [1, 14]>, fillcolor="#47a4e7"] ;
864 -> 868 ;
869 [label=<physical_score &le; 36.05<br/>entropy = 0.65<br/>samples = 6<br/>value = [1, 5]>, fillcolor="#61b1ea"] ;
868 -> 869 ;
870 [label=<entropy = 0.0<br/>samples = 3<br/>value = [0, 3]>, fillcolor="#399de5"] ;
869 -> 870 ;
871 [label=<physical_score &le; 36.15<br/>entropy = 0.918<br/>samples = 3<br/>value = [1, 2]>, fillcolor="#9ccef2"] ;
869 -> 871 ;
872 [label=<entropy = 1.0<br/>samples = 2<br/>value = [1, 1]>, fillcolor="#ffffff"] ;
871 -> 872 ;
873 [label=<entropy = 0.0<br/>samples = 1<br/>value = [0, 1]>, fillcolor="#399de5"] ;
871 -> 873 ;
874 [label=<entropy = 0.0<br/>samples = 9<br/>value = [0, 9]>, fillcolor="#399de5"] ;
868 -> 874 ;
875 [label=<age &le; 55.5<br/>entropy = 0.971<br/>samples = 5<br/>value = [2, 3]>, fillcolor="#bddef6"] ;
863 -> 875 ;
876 [label=<entropy = 0.0<br/>samples = 3<br/>value = [0, 3]>, fillcolor="#399de5"] ;
875 -> 876 ;
877 [label=<entropy = 0.0<br/>samples = 2<br/>value = [2, 0]>, fillcolor="#e58139"] ;
875 -> 877 ;
878 [label=<entropy = 0.0<br/>samples = 14<br/>value = [0, 14]>, fillcolor="#399de5"] ;
862 -> 878 ;
879 [label=<age &le; 55.5<br/>entropy = 0.659<br/>samples = 41<br/>value = [7, 34]>, fillcolor="#62b1ea"] ;
861 -> 879 ;
880 [label=<physical_score &le; 36.85<br/>entropy = 0.779<br/>samples = 26<br/>value = [6, 20]>, fillcolor="#74baed"] ;
879 -> 880 ;
881 [label=<age &le; 54.5<br/>entropy = 0.918<br/>samples = 3<br/>value = [2, 1]>, fillcolor="#f2c09c"] ;
880 -> 881 ;
882 [label=<entropy = 0.0<br/>samples = 1<br/>value = [1, 0]>, fillcolor="#e58139"] ;
881 -> 882 ;
883 [label=<entropy = 1.0<br/>samples = 2<br/>value = [1, 1]>, fillcolor="#ffffff"] ;
881 -> 883 ;
884 [label=<physical_score &le; 36.95<br/>entropy = 0.667<br/>samples = 23<br/>value = [4, 19]>, fillcolor="#63b2ea"] ;
880 -> 884 ;
885 [label=<entropy = 0.0<br/>samples = 4<br/>value = [0, 4]>, fillcolor="#399de5"] ;
884 -> 885 ;
